<?xml version="1.0"?>
<opencv_storage>
<stage14>
  <maxWeakCount>44</maxWeakCount>
  <stageThreshold>-1.5643253326416016e+00</stageThreshold>
  <weakClassifiers>
    <_>
      <internalNodes>
        0 -1 25992 -4501254 -1615160390 -67646224 -263560 454217978
        184609976 1595104728 1595596217</internalNodes>
      <leafValues>
        2.1788990125060081e-02 6.8675863742828369e-01</leafValues></_>
    <_>
      <internalNodes>
        0 -1 16454 -237653254 -178406658 -2286723 -50177 -105600774
        -268437258 -1277297681 -2098209</internalNodes>
      <leafValues>
        -2.1144497394561768e-01 5.3149336576461792e-01</leafValues></_>
    <_>
      <internalNodes>
        0 -1 11375 -1014504533 -671256544 -641861857 1438602743
        -353370129 -69415698 -876609537 -671091721</internalNodes>
      <leafValues>
        -1.7796695232391357e-01 5.3889179229736328e-01</leafValues></_>
    <_>
      <internalNodes>
        0 -1 15652 -38038255 900796851 2012864509 -2228977 -1111769155
        -1077938497 -809919044 -1079001093</internalNodes>
      <leafValues>
        -1.6737347841262817e-01 4.9093997478485107e-01</leafValues></_>
    <_>
      <internalNodes>
        0 -1 21047 -540999721 -2236963 -268959746 1394080671 -1360388606
        -19087487 1610667794 -832569345</internalNodes>
      <leafValues>
        -3.0001223087310791e-01 2.7310281991958618e-01</leafValues></_>
    <_>
      <internalNodes>
        0 -1 16302 -67322080 -772065231 1866987752 1425623413 -2192470
        -71753925 197081995 1287315382</internalNodes>
      <leafValues>
        -3.9356541633605957e-01 1.6943505406379700e-01</leafValues></_>
    <_>
      <internalNodes>
        0 -1 21310 1127717304 -399773512 925780212 1837084533 1398756795
        -978657350 1159191965 20701915</internalNodes>
      <leafValues>
        -3.5820367932319641e-01 1.9038042426109314e-01</leafValues></_>
    <_>
      <internalNodes>
        0 -1 8094 -245893213 -1869372525 353568575 -1617560577
        -184959041 -1263611226 1692384175 93190031</internalNodes>
      <leafValues>
        -2.9642486572265625e-01 2.3822027444839478e-01</leafValues></_>
    <_>
      <internalNodes>
        0 -1 14338 -553648401 -271585553 842047664 -755260801 -23607282
        -814998191 -222365991 -77856997</internalNodes>
      <leafValues>
        -2.0467832684516907e-01 3.1373581290245056e-01</leafValues></_>
    <_>
      <internalNodes>
        0 -1 24519 -41385 -100719273 -1867787521 1913118459 -17283000
        -81900455 -1194265866 -629474309</internalNodes>
      <leafValues>
        -2.3617936670780182e-01 2.5732412934303284e-01</leafValues></_>
    <_>
      <internalNodes>
        0 -1 25687 -1682179074 -743179408 1031792601 -573702699
        -1078198551 -1078831816 563834319 -10243</internalNodes>
      <leafValues>
        -1.8522936105728149e-01 3.2235902547836304e-01</leafValues></_>
    <_>
      <internalNodes>
        0 -1 24563 -258473336 1352341035 -236809250 269184863 1703588776
        1402205120 2359224 353033657</internalNodes>
      <leafValues>
        -3.6342525482177734e-01 1.6868375241756439e-01</leafValues></_>
    <_>
      <internalNodes>
        0 -1 15210 1945432445 -370937991 1058093848 525507152 1779342783
        1589476031 806862777 1480918987</internalNodes>
      <leafValues>
        -3.2385843992233276e-01 1.7606763541698456e-01</leafValues></_>
    <_>
      <internalNodes>
        0 -1 16053 -635570128 -109519752 -2129872721 -1095071567
        1085407027 -725044036 101699391 1010361504</internalNodes>
      <leafValues>
        -4.0915811061859131e-01 1.3641375303268433e-01</leafValues></_>
    <_>
      <internalNodes>
        0 -1 11317 -501221382 -384907222 1939722705 -33631901 26996731
        1328673278 1995962339 2044717051</internalNodes>
      <leafValues>
        -2.3715664446353912e-01 2.2320857644081116e-01</leafValues></_>
    <_>
      <internalNodes>
        0 -1 24632 -21280643 -541438632 1073217375 2067285340 992655354
        993697208 2130771675 -48509441</internalNodes>
      <leafValues>
        -1.8303512036800385e-01 3.1734594702720642e-01</leafValues></_>
    <_>
      <internalNodes>
        0 -1 20292 -747570944 1532820970 -190121137 489315942 1928407554
        -1354200400 -1542654943 -553256330</internalNodes>
      <leafValues>
        -3.3030241727828979e-01 1.5673540532588959e-01</leafValues></_>
    <_>
      <internalNodes>
        0 -1 26578 -134223289 -205267609 1623408193 -463472870
        -421549498 -18090361 -385880147 -530710714</internalNodes>
      <leafValues>
        -1.7822499573230743e-01 3.0852180719375610e-01</leafValues></_>
    <_>
      <internalNodes>
        0 -1 18639 -1350746468 135432473 971714814 528684338 2011504893
        823990495 552712954 581247667</internalNodes>
      <leafValues>
        -3.3514121174812317e-01 1.6475847363471985e-01</leafValues></_>
    <_>
      <internalNodes>
        0 -1 22599 -18003745 -77897761 -764216609 1924882143 -9795384
        -45169379 -1639661621 -9181189</internalNodes>
      <leafValues>
        -1.4314831793308258e-01 3.7973707914352417e-01</leafValues></_>
    <_>
      <internalNodes>
        0 -1 21178 -1107750419 657391083 1755896295 1659362790 258678030
        -57855332 -1761810505 939458047</internalNodes>
      <leafValues>
        -2.3847506940364838e-01 2.0951722562313080e-01</leafValues></_>
    <_>
      <internalNodes>
        0 -1 13877 -1742024464 -611790640 -808595130 1494077621
        722091455 -867457403 162468054 214914260</internalNodes>
      <leafValues>
        -3.1951498985290527e-01 1.5892857313156128e-01</leafValues></_>
    <_>
      <internalNodes>
        0 -1 17891 1607577892 2113773567 -35811700 -1075986562 501227317
        1972707181 -1363592931 -168489377</internalNodes>
      <leafValues>
        -2.1511851251125336e-01 2.3647174239158630e-01</leafValues></_>
    <_>
      <internalNodes>
        0 -1 2499 -307054978 -1394753798 -1488275948 -2064126770
        -546276495 637956197 -836904700 71484871</internalNodes>
      <leafValues>
        -4.3083873391151428e-01 1.1539640277624130e-01</leafValues></_>
    <_>
      <internalNodes>
        0 -1 14487 -2138548011 -415934956 -687931427 755650559 -21217036
        -88140745 -92233731 -1426702841</internalNodes>
      <leafValues>
        -2.0127287507057190e-01 2.3970429599285126e-01</leafValues></_>
    <_>
      <internalNodes>
        0 -1 13989 -252707077 -5263446 326055637 1593127664 133052347
        -829499478 1405953767 -44615</internalNodes>
      <leafValues>
        -1.6586092114448547e-01 2.9360070824623108e-01</leafValues></_>
    <_>
      <internalNodes>
        0 -1 11901 -137106822 -879765857 -721510288 -228261911 -81372152
        -847348134 -223956239 -150736929</internalNodes>
      <leafValues>
        -1.9426393508911133e-01 2.4213017523288727e-01</leafValues></_>
    <_>
      <internalNodes>
        0 -1 19087 1244602384 -801275666 -651785591 1826460746
        -542911565 -1246251269 -912486499 331280729</internalNodes>
      <leafValues>
        -3.1402692198753357e-01 1.5152823925018311e-01</leafValues></_>
    <_>
      <internalNodes>
        0 -1 16390 -819205709 -41748448 1442821631 1473728821 -945150810
        -1902526630 30111214 -698417284</internalNodes>
      <leafValues>
        -1.8320791423320770e-01 2.6866358518600464e-01</leafValues></_>
    <_>
      <internalNodes>
        0 -1 14758 332441736 -187651889 -1387941940 2060988230
        -1187967055 898632459 -1110884532 73206539</internalNodes>
      <leafValues>
        -3.2905879616737366e-01 1.4966326951980591e-01</leafValues></_>
    <_>
      <internalNodes>
        0 -1 17594 -195763500 -504627555 -709619400 367990021
        -1530687063 1911887157 -1193421619 617550338</internalNodes>
      <leafValues>
        -3.0129781365394592e-01 1.5342900156974792e-01</leafValues></_>
    <_>
      <internalNodes>
        0 -1 13157 -204522776 -278003515 1922572528 -96825147 -513030588
        1114085696 -263239995 1915921946</internalNodes>
      <leafValues>
        -3.1167379021644592e-01 1.5334199368953705e-01</leafValues></_>
    <_>
      <internalNodes>
        0 -1 164 1120839670 187567755 258985848 1192626122 1376778169
        1558165371 257377601 1717699792</internalNodes>
      <leafValues>
        -3.7495881319046021e-01 1.2146623432636261e-01</leafValues></_>
    <_>
      <internalNodes>
        0 -1 23976 -1353777152 1473667092 -739510017 458414460
        -2101728632 -1630650935 1379595920 -1338980320</internalNodes>
      <leafValues>
        -3.7064230442047119e-01 1.2319999188184738e-01</leafValues></_>
    <_>
      <internalNodes>
        0 -1 12875 1095150636 1322233070 -12728808 449802176 543867239
        2061781964 2042451286 2034496338</internalNodes>
      <leafValues>
        -3.7066799402236938e-01 1.2619106471538544e-01</leafValues></_>
    <_>
      <internalNodes>
        0 -1 23101 -692109089 -889457825 1565522335 -541624849
        -593997357 -168035075 -65907489 -348997825</internalNodes>
      <leafValues>
        -1.4496941864490509e-01 3.3361813426017761e-01</leafValues></_>
    <_>
      <internalNodes>
        0 -1 14164 -1297616886 -1299251200 892733150 1495208000
        713817139 -2112167286 380241407 1530361224</internalNodes>
      <leafValues>
        -2.3287075757980347e-01 2.1807132661342621e-01</leafValues></_>
    <_>
      <internalNodes>
        0 -1 24172 532411570 -1666144598 1661700368 -572582960
        1126393768 1057325344 -824214279 1162728659</internalNodes>
      <leafValues>
        -2.5320392847061157e-01 1.8616649508476257e-01</leafValues></_>
    <_>
      <internalNodes>
        0 -1 22755 130081135 -135334194 -1425283094 2093610940
        -321461236 -1304812742 -390206762 -1304044556</internalNodes>
      <leafValues>
        -2.3460836708545685e-01 2.0627391338348389e-01</leafValues></_>
    <_>
      <internalNodes>
        0 -1 23820 1802194817 -1321065042 1565952771 -857915789
        -606360640 -251858365 -703623419 -809029888</internalNodes>
      <leafValues>
        -2.2953268885612488e-01 2.0735193789005280e-01</leafValues></_>
    <_>
      <internalNodes>
        0 -1 14938 -830289064 -1543932422 1168465905 1366392672
        -1668626461 -1141128756 1153649011 225986216</internalNodes>
      <leafValues>
        -3.3068397641181946e-01 1.3860216736793518e-01</leafValues></_>
    <_>
      <internalNodes>
        0 -1 16596 584330596 1681473339 525805098 1347490674 1341980715
        1159921719 1840193851 1217409840</internalNodes>
      <leafValues>
        -4.1706088185310364e-01 1.1010503768920898e-01</leafValues></_>
    <_>
      <internalNodes>
        0 -1 15401 -92436960 -817058609 -65978826 1079491259 1323456520
        1378125007 -1634309609 1480607829</internalNodes>
      <leafValues>
        -3.5583001375198364e-01 1.2604729831218719e-01</leafValues></_>
    <_>
      <internalNodes>
        0 -1 7811 -1225869440 2027846646 535736718 1064300536 -487728576
        872454166 1604238986 138797824</internalNodes>
      <leafValues>
        -3.3373901247978210e-01 1.3936820626258850e-01</leafValues></_></weakClassifiers></stage14>
</opencv_storage>
