<?xml version="1.0"?>
<opencv_storage>
<stage2>
  <maxWeakCount>16</maxWeakCount>
  <stageThreshold>-1.9491567611694336e+00</stageThreshold>
  <weakClassifiers>
    <_>
      <internalNodes>
        0 -1 16573 -70256388 -581052964 -1073891084 -132105 -23528196
        -139267 -25827076 -1082150145</internalNodes>
      <leafValues>
        -1.7099511623382568e-01 8.1605392694473267e-01</leafValues></_>
    <_>
      <internalNodes>
        0 -1 537 -529596417 -806359041 1861216255 -268491777 1076035583
        -1881145345 1148711927 -34825</internalNodes>
      <leafValues>
        -3.1290957331657410e-01 7.1756494045257568e-01</leafValues></_>
    <_>
      <internalNodes>
        0 -1 18736 -35652163 -1381372487 -3 -3 -67125319 -1917977795
        -1114792688 -1650467941</internalNodes>
      <leafValues>
        -3.3179184794425964e-01 6.1723309755325317e-01</leafValues></_>
    <_>
      <internalNodes>
        0 -1 19179 -75500464 1062690644 1450400639 1347812693 -50373033
        -16877989 434100703 -1663042305</internalNodes>
      <leafValues>
        -4.4835969805717468e-01 4.2368978261947632e-01</leafValues></_>
    <_>
      <internalNodes>
        0 -1 24140 -13 -1343226965 1409274353 -33597193 -10487032
        252443402 -975179600 -812647009</internalNodes>
      <leafValues>
        -3.5249891877174377e-01 5.1905798912048340e-01</leafValues></_>
    <_>
      <internalNodes>
        0 -1 2811 -137 -287316217 -255857978 -285280002 -150208691
        1331031885 -725297359 -327876817</internalNodes>
      <leafValues>
        -3.9482155442237854e-01 4.0440651774406433e-01</leafValues></_>
    <_>
      <internalNodes>
        0 -1 12674 -202051400 -201592078 -767290608 -695102636 -86721861
        -224915272 -749995170 2135943886</internalNodes>
      <leafValues>
        -5.0372147560119629e-01 3.0523920059204102e-01</leafValues></_>
    <_>
      <internalNodes>
        0 -1 14866 -1911818317 -810827524 -374607113 -536885004
        -1886388289 -338699057 198046197 -1881205547</internalNodes>
      <leafValues>
        -3.1631889939308167e-01 4.6800857782363892e-01</leafValues></_>
    <_>
      <internalNodes>
        0 -1 16431 -1348224005 -424762654 -243273231 -153193868
        -1413496853 -1972716581 1433335765 -553650185</internalNodes>
      <leafValues>
        -3.2610157132148743e-01 4.6793556213378906e-01</leafValues></_>
    <_>
      <internalNodes>
        0 -1 23833 -8433577 -538999457 -1082654881 -546434465
        -1997604245 -69731643 857405439 -1206198438</internalNodes>
      <leafValues>
        -2.7038180828094482e-01 5.0080901384353638e-01</leafValues></_>
    <_>
      <internalNodes>
        0 -1 17792 68164881 -539140609 -40961 -2479171 764689717 -17185
        -1611718721 -1433531352</internalNodes>
      <leafValues>
        -3.2728904485702515e-01 4.2815622687339783e-01</leafValues></_>
    <_>
      <internalNodes>
        0 -1 12875 -12124209 -873486386 -10496417 -763376061 -10891801
        -807055930 1735876439 2138830674</internalNodes>
      <leafValues>
        -3.2724845409393311e-01 4.2174068093299866e-01</leafValues></_>
    <_>
      <internalNodes>
        0 -1 17316 -1381303301 -349187216 -179055117 -545811023
        -1074806849 -808454148 -2013547529 -536879135</internalNodes>
      <leafValues>
        -2.5204294919967651e-01 5.3940361738204956e-01</leafValues></_>
    <_>
      <internalNodes>
        0 -1 25584 -402661621 -816914433 -830472429 -307438611
        -806529263 1301254087 -319928512 -805310602</internalNodes>
      <leafValues>
        -2.8333291411399841e-01 4.7537180781364441e-01</leafValues></_>
    <_>
      <internalNodes>
        0 -1 23323 -1157688653 335487103 1987245055 282784477 -822105592
        -336653800 -1292180841 -29361185</internalNodes>
      <leafValues>
        -3.2893079519271851e-01 4.1141581535339355e-01</leafValues></_>
    <_>
      <internalNodes>
        0 -1 20919 -25542543 -547418881 1004229599 1385828987 -23578449
        -352415173 -1187463241 -1105055905</internalNodes>
      <leafValues>
        -3.1591606140136719e-01 4.0095570683479309e-01</leafValues></_></weakClassifiers></stage2>
</opencv_storage>
