<?xml version="1.0"?>
<opencv_storage>
<stage9>
  <maxWeakCount>30</maxWeakCount>
  <stageThreshold>-1.6638599634170532e+00</stageThreshold>
  <weakClassifiers>
    <_>
      <internalNodes>
        0 -1 19608 1475730932 -134230536 523734524 -1 1602180349
        -1410334721 1601523037 1059848187</internalNodes>
      <leafValues>
        -6.7745193839073181e-02 6.9914770126342773e-01</leafValues></_>
    <_>
      <internalNodes>
        0 -1 11269 -1882783745 -280565002 234693367 -57168 266141695
        -805308673 1071608823 -63497</internalNodes>
      <leafValues>
        -2.8301015496253967e-01 5.2282470464706421e-01</leafValues></_>
    <_>
      <internalNodes>
        0 -1 24684 -6291533 -1347421262 -202637583 -134226512 -2105844
        -1356079813 -687868427 -536873483</internalNodes>
      <leafValues>
        -3.2830861210823059e-01 4.2447170615196228e-01</leafValues></_>
    <_>
      <internalNodes>
        0 -1 25428 -134744313 -233 -168306721 -201 -184551681 -87311424
        1694498783 -260046849</internalNodes>
      <leafValues>
        -2.0517086982727051e-01 5.7740616798400879e-01</leafValues></_>
    <_>
      <internalNodes>
        0 -1 12765 -20482077 -284294398 1610088274 1378170659 -337707025
        -833827448 -12060745 -10485761</internalNodes>
      <leafValues>
        -3.1844577193260193e-01 3.4265694022178650e-01</leafValues></_>
    <_>
      <internalNodes>
        0 -1 10523 -41473 -539579026 -152904193 1560960479 -69314340
        -554154860 -158151169 -577086209</internalNodes>
      <leafValues>
        -2.7133223414421082e-01 3.8415673375129700e-01</leafValues></_>
    <_>
      <internalNodes>
        0 -1 22690 939467759 -436292097 1657239295 1926881276 -494945784
        1180695117 1123906534 1861091326</internalNodes>
      <leafValues>
        -3.3204230666160583e-01 2.6481515169143677e-01</leafValues></_>
    <_>
      <internalNodes>
        0 -1 25390 -536914473 -83886081 -117440513 -9733 -587530273
        -327701 -2433025 -4522177</internalNodes>
      <leafValues>
        -1.6911327838897705e-01 5.1996940374374390e-01</leafValues></_>
    <_>
      <internalNodes>
        0 -1 11687 -1151339781 -71581445 266272508 1597689082 1058996476
        1290491096 195730654 -541401860</internalNodes>
      <leafValues>
        -2.3840276896953583e-01 3.6596661806106567e-01</leafValues></_>
    <_>
      <internalNodes>
        0 -1 15138 -1356158973 -134266875 1595890003 1474283637
        -1431587841 -1142044185 782236670 -676668043</internalNodes>
      <leafValues>
        -2.9703652858734131e-01 2.7046450972557068e-01</leafValues></_>
    <_>
      <internalNodes>
        0 -1 25675 -1682178183 -1147472816 1464328177 -76154507
        -1078206791 -1078231755 129752319 -545268291</internalNodes>
      <leafValues>
        -2.2120825946331024e-01 3.6021727323532104e-01</leafValues></_>
    <_>
      <internalNodes>
        0 -1 15290 -814038367 892471555 -785131505 305287474 -1836433109
        1409270247 1534844779 1517540154</internalNodes>
      <leafValues>
        -3.3368435502052307e-01 2.3179797828197479e-01</leafValues></_>
    <_>
      <internalNodes>
        0 -1 23228 -10528515 -537977377 -1141113921 -604352137 -227080
        -2429765 -74908674 -88416257</internalNodes>
      <leafValues>
        -1.9412355124950409e-01 3.9820954203605652e-01</leafValues></_>
    <_>
      <internalNodes>
        0 -1 22775 -1115822194 -268435585 1980555502 -352325642
        -202053108 2004762495 -52436745 -133260</internalNodes>
      <leafValues>
        -2.7509403228759766e-01 2.9228445887565613e-01</leafValues></_>
    <_>
      <internalNodes>
        0 -1 15378 88388604 -1789587659 386925032 1595195600 173066990
        -1647023242 526253021 1359303639</internalNodes>
      <leafValues>
        -4.5426884293556213e-01 1.7795434594154358e-01</leafValues></_>
    <_>
      <internalNodes>
        0 -1 10456 -222305688 1206870279 -84025090 -184704322 1610597632
        1594658569 -138945033 1464289027</internalNodes>
      <leafValues>
        -3.8766664266586304e-01 1.8530704081058502e-01</leafValues></_>
    <_>
      <internalNodes>
        0 -1 527 -1062736073 -806984030 -410049607 -541929014 1901060093
        -272118577 1729586871 -24119097</internalNodes>
      <leafValues>
        -2.4160856008529663e-01 3.0967059731483459e-01</leafValues></_>
    <_>
      <internalNodes>
        0 -1 21890 1985682557 -10518665 -1027939585 845085951 -84161463
        -12861571 2050292461 -96553036</internalNodes>
      <leafValues>
        -2.5263333320617676e-01 2.7336710691452026e-01</leafValues></_>
    <_>
      <internalNodes>
        0 -1 15283 659301805 -943526614 2010628178 -756076750 1659354082
        168488842 1472192373 1431306231</internalNodes>
      <leafValues>
        -3.4568157792091370e-01 2.0720015466213226e-01</leafValues></_>
    <_>
      <internalNodes>
        0 -1 22452 -612446093 -729877193 -747143397 -15011071 138608826
        -118531409 -1839526866 -1710557358</internalNodes>
      <leafValues>
        -2.6899886131286621e-01 2.6121479272842407e-01</leafValues></_>
    <_>
      <internalNodes>
        0 -1 16726 -411673099 871766973 -1191395331 469326943
        -1209262599 -541261955 -84608003 -1078314049</internalNodes>
      <leafValues>
        -2.3968757688999176e-01 3.0439585447311401e-01</leafValues></_>
    <_>
      <internalNodes>
        0 -1 13848 -335499304 469137373 524229957 1475433296 -1917139468
        -1225127784 -370814977 -1208535806</internalNodes>
      <leafValues>
        -3.3883595466613770e-01 2.0645274221897125e-01</leafValues></_>
    <_>
      <internalNodes>
        0 -1 16441 -37923728 1601564433 2075852436 1576660863
        -1091022476 -1701790290 -1074078842 -1172136097</internalNodes>
      <leafValues>
        -2.8582334518432617e-01 2.4504871666431427e-01</leafValues></_>
    <_>
      <internalNodes>
        0 -1 24729 -1078968463 -1112085064 -545395753 -70155 -1745223685
        -262145 800808703 -285795852</internalNodes>
      <leafValues>
        -2.2417466342449188e-01 3.1364887952804565e-01</leafValues></_>
    <_>
      <internalNodes>
        0 -1 12261 1360642479 1356567231 281177579 1369234879 2008415711
        -175053904 1437917179 -796079222</internalNodes>
      <leafValues>
        -2.1516920626163483e-01 3.3805799484252930e-01</leafValues></_>
    <_>
      <internalNodes>
        0 -1 14366 -151015857 -277880881 984820450 -627378689 -88187828
        -1887482273 -253096244 -97329285</internalNodes>
      <leafValues>
        -2.4777266383171082e-01 2.8374344110488892e-01</leafValues></_>
    <_>
      <internalNodes>
        0 -1 20292 -1276055864 -552737884 1822220143 497966966 634751147
        1006410912 1818928 118483702</internalNodes>
      <leafValues>
        -3.9173498749732971e-01 1.8038333952426910e-01</leafValues></_>
    <_>
      <internalNodes>
        0 -1 24165 -973080022 -873797701 -573630544 -21610504
        -2124686544 -894702611 -1294663071 -858915902</internalNodes>
      <leafValues>
        -3.1599736213684082e-01 2.2739282250404358e-01</leafValues></_>
    <_>
      <internalNodes>
        0 -1 22781 -35868254 -467617238 649954002 -508429317 -1022562807
        520954376 1658168499 471662141</internalNodes>
      <leafValues>
        -3.7019190192222595e-01 1.8344348669052124e-01</leafValues></_>
    <_>
      <internalNodes>
        0 -1 15136 202109687 -1886717014 1009734451 -87427920
        -1386382593 737911759 1107138533 1340990965</internalNodes>
      <leafValues>
        -3.3460327982902527e-01 2.0438531041145325e-01</leafValues></_></weakClassifiers></stage9>
</opencv_storage>
