<?xml version="1.0"?>
<opencv_storage>
<stage6>
  <maxWeakCount>24</maxWeakCount>
  <stageThreshold>-1.6945986747741699e+00</stageThreshold>
  <weakClassifiers>
    <_>
      <internalNodes>
        0 -1 17190 475310624 -1120026705 1163210717 -44171265 -152658
        -1114994034 -34226177 -1080217682</internalNodes>
      <leafValues>
        -1.3836127519607544e-01 7.1885985136032104e-01</leafValues></_>
    <_>
      <internalNodes>
        0 -1 10423 -9240578 -8388641 2066939899 2067462655 -864371976
        -75825158 1484455935 -536912305</internalNodes>
      <leafValues>
        -3.1433051824569702e-01 5.5930721759796143e-01</leafValues></_>
    <_>
      <internalNodes>
        0 -1 1745 -671617042 -136318001 219557839 -538979345 -105119793
        -218761822 -4988929 1968566223</internalNodes>
      <leafValues>
        -3.9739972352981567e-01 4.0196302533149719e-01</leafValues></_>
    <_>
      <internalNodes>
        0 -1 19748 353391837 -688643 1896299518 -2147363 -7798787
        -2302503 1005109247 1069422824</internalNodes>
      <leafValues>
        -3.4480640292167664e-01 4.3194502592086792e-01</leafValues></_>
    <_>
      <internalNodes>
        0 -1 20968 1941951504 1543475269 -151298209 844887893
        -2008048548 -67462 408934655 -1088684037</internalNodes>
      <leafValues>
        -4.0651324391365051e-01 3.2221487164497375e-01</leafValues></_>
    <_>
      <internalNodes>
        0 -1 17334 1939928056 1979030266 386075534 1180009934 956927466
        -1177480536 1745206158 231670718</internalNodes>
      <leafValues>
        -5.5226677656173706e-01 1.7927131056785583e-01</leafValues></_>
    <_>
      <internalNodes>
        0 -1 25667 -527373 -406062165 -235703821 -234884109 -1312854
        -1949372536 -9569549 -538969141</internalNodes>
      <leafValues>
        -2.2896023094654083e-01 5.2203035354614258e-01</leafValues></_>
    <_>
      <internalNodes>
        0 -1 3111 -946156801 1610537693 -282376193 -287700892 1359039861
        498456508 1808748031 -55213</internalNodes>
      <leafValues>
        -2.9616484045982361e-01 3.6305934190750122e-01</leafValues></_>
    <_>
      <internalNodes>
        0 -1 23461 -271584573 -284448760 1425388403 -708979791
        -278927608 -1928491256 -1186991951 1158671803</internalNodes>
      <leafValues>
        -3.3505094051361084e-01 3.1067863106727600e-01</leafValues></_>
    <_>
      <internalNodes>
        0 -1 23833 -8695725 -606141163 -1098917409 525212255 -94762850
        -553910579 -1440025862 973261466</internalNodes>
      <leafValues>
        -3.4784713387489319e-01 3.0831137299537659e-01</leafValues></_>
    <_>
      <internalNodes>
        0 -1 14039 1674192643 -976263422 354359155 1356808978
        -1409292377 185526530 1125381111 1381498481</internalNodes>
      <leafValues>
        -4.0027540922164917e-01 2.5512710213661194e-01</leafValues></_>
    <_>
      <internalNodes>
        0 -1 14976 -1979526992 -549860176 -503582253 1609389433
        254521787 -5519170 -1925335305 500145305</internalNodes>
      <leafValues>
        -3.5403794050216675e-01 2.6760029792785645e-01</leafValues></_>
    <_>
      <internalNodes>
        0 -1 19509 -1858734340 907126520 1437654892 -4202764 892640187
        -1089160141 202225916 741800679</internalNodes>
      <leafValues>
        -3.9671444892883301e-01 2.3548339307308197e-01</leafValues></_>
    <_>
      <internalNodes>
        0 -1 16398 -77791456 -604293961 -1125844536 1383798867 71916712
        532287531 536809375 1488641526</internalNodes>
      <leafValues>
        -3.7940984964370728e-01 2.4167598783969879e-01</leafValues></_>
    <_>
      <internalNodes>
        0 -1 10330 -402741522 -892539762 -13107634 2096033518
        -1208892581 1364695046 -1280314553 1432842863</internalNodes>
      <leafValues>
        -4.6702891588211060e-01 1.9901219010353088e-01</leafValues></_>
    <_>
      <internalNodes>
        0 -1 22213 -270702176 -324735954 -579347055 -1726808168
        -1895058808 -1930716536 -1145621759 -1648400425</internalNodes>
      <leafValues>
        -3.4199470281600952e-01 2.6592692732810974e-01</leafValues></_>
    <_>
      <internalNodes>
        0 -1 16597 89667660 1562185713 1540232446 1529895728 214175396
        1968523613 1610398207 945109267</internalNodes>
      <leafValues>
        -4.7821566462516785e-01 1.9646081328392029e-01</leafValues></_>
    <_>
      <internalNodes>
        0 -1 15743 1916009300 1352097137 -1933846102 1084000357
        -189919606 -1195460673 -1615355970 -1057036758</internalNodes>
      <leafValues>
        -3.3907940983772278e-01 2.5733107328414917e-01</leafValues></_>
    <_>
      <internalNodes>
        0 -1 21116 -1488273523 -1476442675 1829690870 1283440637
        777764672 -44156160 67340038 1323302847</internalNodes>
      <leafValues>
        -3.7199020385742188e-01 2.4211210012435913e-01</leafValues></_>
    <_>
      <internalNodes>
        0 -1 17798 1529879825 824033073 2013245213 -1077970937
        -1347682371 -1080296274 -1717109368 -1347482179</internalNodes>
      <leafValues>
        -1.9090394675731659e-01 4.7795867919921875e-01</leafValues></_>
    <_>
      <internalNodes>
        0 -1 11263 -1039139591 260810914 1263236054 -764448656
        1179561979 -269780296 1141664213 -881888014</internalNodes>
      <leafValues>
        -3.0571481585502625e-01 2.8738319873809814e-01</leafValues></_>
    <_>
      <internalNodes>
        0 -1 23315 -58783651 -5431973 -1426402561 1918761711 -289748788
        -13162680 -117789461 -21319953</internalNodes>
      <leafValues>
        -1.9799497723579407e-01 4.4157320261001587e-01</leafValues></_>
    <_>
      <internalNodes>
        0 -1 14812 -1895786343 -353576 -1621237797 -573156140
        -1435128143 -4850508 -1684414484 -1663762427</internalNodes>
      <leafValues>
        -2.4273282289505005e-01 3.4030815958976746e-01</leafValues></_>
    <_>
      <internalNodes>
        0 -1 13016 -270225778 265006253 -28049834 -1868567812 1532087368
        1533265929 -169871529 1390313300</internalNodes>
      <leafValues>
        -4.3554463982582092e-01 1.9038102030754089e-01</leafValues></_></weakClassifiers></stage6>
</opencv_storage>
