<?xml version="1.0"?>
<opencv_storage>
<stage8>
  <maxWeakCount>30</maxWeakCount>
  <stageThreshold>-1.7291971445083618e+00</stageThreshold>
  <weakClassifiers>
    <_>
      <internalNodes>
        0 -1 17623 -715851016 -2113539 1876800250 -1068816 -543360068
        -34310660 -69231622 -2278678</internalNodes>
      <leafValues>
        -7.7826723456382751e-02 7.2079086303710938e-01</leafValues></_>
    <_>
      <internalNodes>
        0 -1 24121 -67109901 -8390021 1440469200 -134218757 -8389109
        -15746807 1935143090 -552600689</internalNodes>
      <leafValues>
        -2.5067663192749023e-01 5.8619970083236694e-01</leafValues></_>
    <_>
      <internalNodes>
        0 -1 10272 -67372289 -71644993 -1213542662 320524442 -551861762
        1506630779 -134260514 -536871425</internalNodes>
      <leafValues>
        -2.1118842065334320e-01 6.2967354059219360e-01</leafValues></_>
    <_>
      <internalNodes>
        0 -1 9828 -353701894 -69522433 -8388641 2113093617 -1427592198
        -1426849793 -272302081 1608607703</internalNodes>
      <leafValues>
        -4.1382193565368652e-01 3.1735068559646606e-01</leafValues></_>
    <_>
      <internalNodes>
        0 -1 9144 -8394833 -814817281 1888699130 -253758838 -8925433
        1329063701 -144182021 2001204807</internalNodes>
      <leafValues>
        -4.1732263565063477e-01 2.4918875098228455e-01</leafValues></_>
    <_>
      <internalNodes>
        0 -1 25978 -3241 -2119502022 -33566660 -69 -2102610 -1162158376
        -19922984 -16778241</internalNodes>
      <leafValues>
        -1.9581955671310425e-01 5.4108762741088867e-01</leafValues></_>
    <_>
      <internalNodes>
        0 -1 23415 -8519697 -167775105 -138423378 -738197539 -67241397
        2001712158 -143920137 -1025</internalNodes>
      <leafValues>
        -1.9761872291564941e-01 5.2375477552413940e-01</leafValues></_>
    <_>
      <internalNodes>
        0 -1 19227 -1226836400 -1617068332 -1126336897 341179484
        -84263186 -17141542 283869855 -1629487521</internalNodes>
      <leafValues>
        -3.6142390966415405e-01 2.9165574908256531e-01</leafValues></_>
    <_>
      <internalNodes>
        0 -1 25180 -1078199015 -1147460080 -664350217 -76546179
        -1088767096 -1079285728 539158010 1604832765</internalNodes>
      <leafValues>
        -3.0139619112014771e-01 3.1096354126930237e-01</leafValues></_>
    <_>
      <internalNodes>
        0 -1 18926 -419431661 1987510255 -184615890 -188547130 851386142
        -1140879361 -419775682 276234110</internalNodes>
      <leafValues>
        -3.8025197386741638e-01 2.3960575461387634e-01</leafValues></_>
    <_>
      <internalNodes>
        0 -1 15210 1945433081 -170000387 386085376 1527779904 -991118337
        2094355423 408793595 1482013679</internalNodes>
      <leafValues>
        -3.6646789312362671e-01 2.5614970922470093e-01</leafValues></_>
    <_>
      <internalNodes>
        0 -1 15234 -9438237 -273708414 -705228431 -151568976 -1427197969
        -811090063 2010117878 -537921549</internalNodes>
      <leafValues>
        -2.1985538303852081e-01 3.9423984289169312e-01</leafValues></_>
    <_>
      <internalNodes>
        0 -1 11703 -26020106 1062700540 2142566098 1529019391 1316618432
        1847381324 -898463495 1534546503</internalNodes>
      <leafValues>
        -3.9275494217872620e-01 2.2825260460376740e-01</leafValues></_>
    <_>
      <internalNodes>
        0 -1 17198 -1655325644 -1176687260 1457307133 -119671873
        -50354953 -1081067867 -533618451 772778796</internalNodes>
      <leafValues>
        -3.3798012137413025e-01 2.4443455040454865e-01</leafValues></_>
    <_>
      <internalNodes>
        0 -1 15620 860886812 1985596997 -1812493570 870142189
        -1575957507 1393584008 -1181771090 464132281</internalNodes>
      <leafValues>
        -3.1829831004142761e-01 2.4285106360912323e-01</leafValues></_>
    <_>
      <internalNodes>
        0 -1 2265 -2138900609 1124066510 -1912810545 -453254138
        1883306871 1383985890 -967707323 -1268779721</internalNodes>
      <leafValues>
        -3.5443979501724243e-01 2.1650807559490204e-01</leafValues></_>
    <_>
      <internalNodes>
        0 -1 26564 -539058 -145495201 -428582871 1919408755 1445825090
        -551027213 -1569234738 -757667894</internalNodes>
      <leafValues>
        -2.1594732999801636e-01 3.5987055301666260e-01</leafValues></_>
    <_>
      <internalNodes>
        0 -1 23373 -1075891670 721316475 -230001998 853398239 -210241016
        1852602890 -1307330912 -201872385</internalNodes>
      <leafValues>
        -3.6785671114921570e-01 2.0774219930171967e-01</leafValues></_>
    <_>
      <internalNodes>
        0 -1 16198 304151072 408621081 1624727630 1560215623 -1413825864
        -68492877 423337913 958029183</internalNodes>
      <leafValues>
        -4.3911695480346680e-01 1.5907584130764008e-01</leafValues></_>
    <_>
      <internalNodes>
        0 -1 25465 -226803694 -136359345 2043713843 905870171 -796340006
        -2029808978 1077604860 1511682890</internalNodes>
      <leafValues>
        -3.0057489871978760e-01 2.3613026738166809e-01</leafValues></_>
    <_>
      <internalNodes>
        0 -1 18519 -1879000836 -1878279878 1999764396 -10011948
        356563379 2020940087 676182180 1015853543</internalNodes>
      <leafValues>
        -4.1388082504272461e-01 1.7654010653495789e-01</leafValues></_>
    <_>
      <internalNodes>
        0 -1 3326 -832130329 -1496464977 -2102412129 -436543382
        -364030769 -336874241 -830492161 -859508384</internalNodes>
      <leafValues>
        -2.5318130850791931e-01 2.8176680207252502e-01</leafValues></_>
    <_>
      <internalNodes>
        0 -1 14086 853873443 -942748758 -261130190 852882194 1773648879
        1246536582 1366790903 1189606110</internalNodes>
      <leafValues>
        -3.5697153210639954e-01 2.1502907574176788e-01</leafValues></_>
    <_>
      <internalNodes>
        0 -1 21238 -348939880 -1440577368 1014322516 1953945593
        1513820584 -1892369476 1499812253 68279369</internalNodes>
      <leafValues>
        -4.5277872681617737e-01 1.7048160731792450e-01</leafValues></_>
    <_>
      <internalNodes>
        0 -1 16802 1632942052 1419018127 627025903 -34608657 1634072047
        1962256072 -1109413970 -154285394</internalNodes>
      <leafValues>
        -2.6294609904289246e-01 2.9269760847091675e-01</leafValues></_>
    <_>
      <internalNodes>
        0 -1 17181 268450736 -738670356 -2056510724 -646115151
        -1760436303 -1431713112 925274789 -1883305507</internalNodes>
      <leafValues>
        -2.9031011462211609e-01 2.5297769904136658e-01</leafValues></_>
    <_>
      <internalNodes>
        0 -1 21855 -50921225 -142647457 -803737386 845098751 -744305588
        -1082419170 -124584967 1047176935</internalNodes>
      <leafValues>
        -2.7532783150672913e-01 2.7716460824012756e-01</leafValues></_>
    <_>
      <internalNodes>
        0 -1 13189 -623386889 -814986673 1616413424 1350099935
        -260366776 -1911874719 1959327452 -751376566</internalNodes>
      <leafValues>
        -2.6009348034858704e-01 2.7950531244277954e-01</leafValues></_>
    <_>
      <internalNodes>
        0 -1 19314 -505641824 -59374236 537072494 1562693218 867209907
        -1695645514 488730660 792018000</internalNodes>
      <leafValues>
        -5.0561702251434326e-01 1.4428651332855225e-01</leafValues></_>
    <_>
      <internalNodes>
        0 -1 3594 1920973738 -252104201 867387303 1556061497 1962570132
        -1398760992 2046780267 1975891276</internalNodes>
      <leafValues>
        -3.7171310186386108e-01 1.9069279730319977e-01</leafValues></_></weakClassifiers></stage8>
</opencv_storage>
