<?xml version="1.0"?>
<opencv_storage>
<stage3>
  <maxWeakCount>16</maxWeakCount>
  <stageThreshold>-1.9441133737564087e+00</stageThreshold>
  <weakClassifiers>
    <_>
      <internalNodes>
        0 -1 13741 1907531936 -6 1104245233 -134753285 -34894934
        -1081603960 -1258294789 -134219334</internalNodes>
      <leafValues>
        -1.9793388247489929e-01 7.9661327600479126e-01</leafValues></_>
    <_>
      <internalNodes>
        0 -1 2899 -201854726 -2098177 1374004202 -18433 -203165454
        1887564768 1004911615 2145383311</internalNodes>
      <leafValues>
        -4.0741476416587830e-01 6.1040776968002319e-01</leafValues></_>
    <_>
      <internalNodes>
        0 -1 24604 -67109912 -203424001 -219155806 -218103809 -1536
        -1048582962 -3148928 -134217985</internalNodes>
      <leafValues>
        -3.9624449610710144e-01 5.2885961532592773e-01</leafValues></_>
    <_>
      <internalNodes>
        0 -1 8530 -890311689 -274270494 58686963 -2069 -816002049
        -538643477 327119863 -2057</internalNodes>
      <leafValues>
        -3.2873961329460144e-01 5.4135209321975708e-01</leafValues></_>
    <_>
      <internalNodes>
        0 -1 9216 -201593089 -294736369 -260910337 -163381505 -17477876
        1296302085 -17302785 -146276769</internalNodes>
      <leafValues>
        -3.5999697446823120e-01 4.6188282966613770e-01</leafValues></_>
    <_>
      <internalNodes>
        0 -1 13913 -137055496 -40791814 289478872 -616443401 -1174259030
        -1300229712 -602154021 1608465403</internalNodes>
      <leafValues>
        -5.1293277740478516e-01 3.1749007105827332e-01</leafValues></_>
    <_>
      <internalNodes>
        0 -1 26364 -261 -269485406 -629247470 -788541901 -1069490
        -1981045799 -69218362 -16777225</internalNodes>
      <leafValues>
        -2.7605819702148438e-01 5.6070905923843384e-01</leafValues></_>
    <_>
      <internalNodes>
        0 -1 24003 -83894689 -142617281 -218369290 1920662111 -16791484
        -9497582 -84624670 -84214017</internalNodes>
      <leafValues>
        -2.9377719759941101e-01 4.9865728616714478e-01</leafValues></_>
    <_>
      <internalNodes>
        0 -1 11445 902279147 -405887070 1936948050 1886384928 265285627
        -967914741 2003261431 -146276361</internalNodes>
      <leafValues>
        -3.4364056587219238e-01 3.9887171983718872e-01</leafValues></_>
    <_>
      <internalNodes>
        0 -1 24689 -1080034053 -1415060566 -573049488 -680042571
        -1416907008 789117696 1165718005 -811598663</internalNodes>
      <leafValues>
        -3.4053847193717957e-01 4.1836073994636536e-01</leafValues></_>
    <_>
      <internalNodes>
        0 -1 18617 1067949240 -1658864624 1956084784 2004299378
        1559345597 -854795843 1895303324 70758643</internalNodes>
      <leafValues>
        -4.9569955468177795e-01 2.5725081562995911e-01</leafValues></_>
    <_>
      <internalNodes>
        0 -1 21594 -192941289 1937760095 -717020338 -94453985
        -1508238577 -92302797 -203450198 -226824390</internalNodes>
      <leafValues>
        -3.0205556750297546e-01 4.2382475733757019e-01</leafValues></_>
    <_>
      <internalNodes>
        0 -1 13157 -201336065 -276824082 -491855665 -218434833
        -134226354 -817922229 -218705305 -75825282</internalNodes>
      <leafValues>
        -2.4096499383449554e-01 4.9812793731689453e-01</leafValues></_>
    <_>
      <internalNodes>
        0 -1 12013 59303225 -33287 -1712610305 -11631708 117788083
        -307265 1069441023 -1073802052</internalNodes>
      <leafValues>
        -2.2368267178535461e-01 5.3816825151443481e-01</leafValues></_>
    <_>
      <internalNodes>
        0 -1 22027 -1208160788 -1523617554 -235934302 -16782852 -138481
        -581090036 -201333293 -555764235</internalNodes>
      <leafValues>
        -3.1337252259254456e-01 3.8263812661170959e-01</leafValues></_>
    <_>
      <internalNodes>
        0 -1 15276 -204505367 -290541910 -50744079 -221266912 -805570637
        -835715260 1475082231 -671094793</internalNodes>
      <leafValues>
        -2.7577275037765503e-01 4.3725043535232544e-01</leafValues></_></weakClassifiers></stage3>
</opencv_storage>
