<?xml version="1.0"?>
<opencv_storage>
<stage12>
  <maxWeakCount>39</maxWeakCount>
  <stageThreshold>-1.6513427495956421e+00</stageThreshold>
  <weakClassifiers>
    <_>
      <internalNodes>
        0 -1 11727 -67110149 1507410078 486178558 487250110 -1073853220
        1557924864 266010110 1606082046</internalNodes>
      <leafValues>
        7.9097360372543335e-02 7.2602832317352295e-01</leafValues></_>
    <_>
      <internalNodes>
        0 -1 25141 -8397829 -5538640 1901591536 2134604280 -135533829
        -1633955521 1394333177 -8651781</internalNodes>
      <leafValues>
        -1.5100435912609100e-01 6.2202990055084229e-01</leafValues></_>
    <_>
      <internalNodes>
        0 -1 11223 -201334034 -136317442 852751088 1404304383
        -1076364306 668689996 2011687866 1599078347</internalNodes>
      <leafValues>
        -4.4644370675086975e-01 2.8301903605461121e-01</leafValues></_>
    <_>
      <internalNodes>
        0 -1 17770 1431343613 1608341503 1608332286 2144285692 864157433
        -2302532 2142879743 1006239880</internalNodes>
      <leafValues>
        -3.1988477706909180e-01 3.2213538885116577e-01</leafValues></_>
    <_>
      <internalNodes>
        0 -1 26605 -17 -168306817 -355474706 1627389895 -11534586
        -261362093 -67108882 -185597969</internalNodes>
      <leafValues>
        -1.9808287918567657e-01 4.9128481745719910e-01</leafValues></_>
    <_>
      <internalNodes>
        0 -1 23323 -1744837901 601764447 1927279602 844362713 -21767672
        -279135704 49586930 -16777221</internalNodes>
      <leafValues>
        -3.3889833092689514e-01 2.3707681894302368e-01</leafValues></_>
    <_>
      <internalNodes>
        0 -1 1465 -150997001 -34178314 1606397935 -2117918 1556479999
        -36641283 2147433983 -1224705</internalNodes>
      <leafValues>
        -1.9717752933502197e-01 3.9997062087059021e-01</leafValues></_>
    <_>
      <internalNodes>
        0 -1 15255 845312349 1912591717 453056922 252022018 1187944095
        467338175 2114977755 1543963615</internalNodes>
      <leafValues>
        -3.6146390438079834e-01 2.0476521551609039e-01</leafValues></_>
    <_>
      <internalNodes>
        0 -1 22097 -420544605 116379087 -539271885 -21053505 -840238323
        1277860253 -1965137214 -925893665</internalNodes>
      <leafValues>
        -2.7527114748954773e-01 2.4197629094123840e-01</leafValues></_>
    <_>
      <internalNodes>
        0 -1 17592 -237716484 -737039447 2135632498 1610595762
        -1747154177 -466284673 1066909406 580727351</internalNodes>
      <leafValues>
        -3.0834639072418213e-01 2.1473187208175659e-01</leafValues></_>
    <_>
      <internalNodes>
        0 -1 24678 1060896767 -1146882120 -545273347 -134292483
        238777260 -1096117848 386518527 2147221242</internalNodes>
      <leafValues>
        -1.9130139052867889e-01 3.3091253042221069e-01</leafValues></_>
    <_>
      <internalNodes>
        0 -1 11389 -521837061 -840005982 1541221906 1928673056
        1246722010 -1362309312 1912041715 -941656326</internalNodes>
      <leafValues>
        -3.0816161632537842e-01 2.1620567142963409e-01</leafValues></_>
    <_>
      <internalNodes>
        0 -1 24946 -33599277 -705213201 -1625030661 -537428113 -88418113
        -335827201 -601296402 -12910657</internalNodes>
      <leafValues>
        -1.6651244461536407e-01 3.7167832255363464e-01</leafValues></_>
    <_>
      <internalNodes>
        0 -1 17588 -1921231756 1985071485 -539219460 1060343679
        -250554943 1929659708 -5734723 239081899</internalNodes>
      <leafValues>
        -3.9924767613410950e-01 1.5478149056434631e-01</leafValues></_>
    <_>
      <internalNodes>
        0 -1 15318 2079322915 -269553790 -237551280 -218386894
        -1082196002 -2011177271 1459254645 -606076937</internalNodes>
      <leafValues>
        -2.2673070430755615e-01 2.6509898900985718e-01</leafValues></_>
    <_>
      <internalNodes>
        0 -1 21002 -90685216 -34085663 324363247 -671334298 588505763
        1525378518 589741351 130502076</internalNodes>
      <leafValues>
        -4.0369206666946411e-01 1.5373185276985168e-01</leafValues></_>
    <_>
      <internalNodes>
        0 -1 7357 -546308097 -542450201 -1075054994 -542971153
        1602049516 -545972745 2102350286 -257</internalNodes>
      <leafValues>
        -1.2058974057435989e-01 5.1116245985031128e-01</leafValues></_>
    <_>
      <internalNodes>
        0 -1 6490 -423366665 794558463 -820791364 671031295 1611824965
        2146952191 -325718100 -302707051</internalNodes>
      <leafValues>
        -2.4310949444770813e-01 2.3939275741577148e-01</leafValues></_>
    <_>
      <internalNodes>
        0 -1 21969 -1166513848 993774056 -13460597 287956339 -13391189
        -42374936 1116059067 -551561930</internalNodes>
      <leafValues>
        -2.3554964363574982e-01 2.4346667528152466e-01</leafValues></_>
    <_>
      <internalNodes>
        0 -1 16292 -2002191726 -72699600 522705295 1561710836
        -1375471662 -1889631855 257683660 1490846044</internalNodes>
      <leafValues>
        -3.4505021572113037e-01 1.6912283003330231e-01</leafValues></_>
    <_>
      <internalNodes>
        0 -1 11874 -134220033 -168018758 1190195931 -78446601 -965997500
        1297875008 -1229652646 -11284901</internalNodes>
      <leafValues>
        -1.9370363652706146e-01 3.0255383253097534e-01</leafValues></_>
    <_>
      <internalNodes>
        0 -1 19171 -215817196 1058333644 -1102398897 1090966039 -6536609
        -1161924162 -1456302023 -1156961740</internalNodes>
      <leafValues>
        -3.2351496815681458e-01 1.7075873911380768e-01</leafValues></_>
    <_>
      <internalNodes>
        0 -1 3817 -1070597153 -850990546 233111026 -12002049 1172175869
        1606021374 1195168708 -6482241</internalNodes>
      <leafValues>
        -2.0621448755264282e-01 2.6527902483940125e-01</leafValues></_>
    <_>
      <internalNodes>
        0 -1 16349 1789587373 -276158558 -772282262 1343714099
        1179288363 -1031233015 1666035654 -723517967</internalNodes>
      <leafValues>
        -2.4564908444881439e-01 2.3100529611110687e-01</leafValues></_>
    <_>
      <internalNodes>
        0 -1 20467 -584077152 -911690840 1610603601 1551355415
        -975634021 1159289789 -1725986415 -1744702829</internalNodes>
      <leafValues>
        -2.9996553063392639e-01 1.8550327420234680e-01</leafValues></_>
    <_>
      <internalNodes>
        0 -1 25510 -202178481 738154514 -258114943 856586006 -393535351
        235573760 1112228059 305724126</internalNodes>
      <leafValues>
        -2.7464246749877930e-01 2.0652659237384796e-01</leafValues></_>
    <_>
      <internalNodes>
        0 -1 16800 20993284 -268601905 927993807 1775717390 1866768789
        -203440417 -3339905 -1362679258</internalNodes>
      <leafValues>
        -2.7388757467269897e-01 2.1283492445945740e-01</leafValues></_>
    <_>
      <internalNodes>
        0 -1 15465 -91403766 -842019669 -354517966 -264544514 -22656440
        -1017686193 -563046690 -75825154</internalNodes>
      <leafValues>
        -2.3245581984519958e-01 2.5026056170463562e-01</leafValues></_>
    <_>
      <internalNodes>
        0 -1 16971 335055492 1601722111 -2050453620 -2238678 1893838757
        2141044927 -591065315 1280584367</internalNodes>
      <leafValues>
        -2.7402099967002869e-01 1.9632703065872192e-01</leafValues></_>
    <_>
      <internalNodes>
        0 -1 17713 -1460119076 1576951151 1798119356 402462109 -82257732
        -34507696 2131820524 1060244475</internalNodes>
      <leafValues>
        -3.0110341310501099e-01 1.7846049368381500e-01</leafValues></_>
    <_>
      <internalNodes>
        0 -1 22731 988668654 -428132547 -531317690 818724446 -426317044
        -149485009 -294657295 -361432332</internalNodes>
      <leafValues>
        -2.7149543166160583e-01 2.0721319317817688e-01</leafValues></_>
    <_>
      <internalNodes>
        0 -1 24005 -1564720472 364642418 1388731758 1063932415 806369961
        873528198 1577217928 389732697</internalNodes>
      <leafValues>
        -3.8932499289512634e-01 1.3972482085227966e-01</leafValues></_>
    <_>
      <internalNodes>
        0 -1 24068 -521207945 -1416432338 1305955741 -469764673
        -38164556 983612136 1311070788 -1396967648</internalNodes>
      <leafValues>
        -2.6250541210174561e-01 2.1251453459262848e-01</leafValues></_>
    <_>
      <internalNodes>
        0 -1 12760 264223008 501418234 18289048 1506006264 262322610
        -1155482742 243108027 1594876</internalNodes>
      <leafValues>
        -3.1952801346778870e-01 1.7375633120536804e-01</leafValues></_>
    <_>
      <internalNodes>
        0 -1 19418 -920687399 -1058091500 1243041034 -393705568
        519987043 -788597786 -4752073 1635247991</internalNodes>
      <leafValues>
        -3.4938400983810425e-01 1.6275264322757721e-01</leafValues></_>
    <_>
      <internalNodes>
        0 -1 17499 566554960 237769624 1574730840 -1366409596 -436977765
        135952695 674105348 419492245</internalNodes>
      <leafValues>
        -4.6406990289688110e-01 1.1025270819664001e-01</leafValues></_>
    <_>
      <internalNodes>
        0 -1 20768 -297281468 2047950933 1308997676 2055252544 349634572
        533485245 -1975575992 270709266</internalNodes>
      <leafValues>
        -3.8413187861442566e-01 1.3711071014404297e-01</leafValues></_>
    <_>
      <internalNodes>
        0 -1 16186 688062256 620817184 -237170575 -182062719 587726747
        -1887239013 334381525 219877456</internalNodes>
      <leafValues>
        -3.7605109810829163e-01 1.3582187891006470e-01</leafValues></_>
    <_>
      <internalNodes>
        0 -1 863 742018047 -1327795492 97508093 -22256286 1835280179
        -29948747 -195911683 -1145076745</internalNodes>
      <leafValues>
        -1.9651883840560913e-01 2.6054826378822327e-01</leafValues></_></weakClassifiers></stage12>
</opencv_storage>
