<?xml version="1.0"?>
<opencv_storage>
<stage13>
  <maxWeakCount>44</maxWeakCount>
  <stageThreshold>-1.6125185489654541e+00</stageThreshold>
  <weakClassifiers>
    <_>
      <internalNodes>
        0 -1 25662 -2100502 -275786870 -789318926 1928330815 -1118326
        202173962 1374679203 1473242351</internalNodes>
      <leafValues>
        6.4257778227329254e-02 7.1100246906280518e-01</leafValues></_>
    <_>
      <internalNodes>
        0 -1 17650 -815989764 -27267087 1998582234 -538970127 -538968073
        -167903747 -67110145 -33701889</internalNodes>
      <leafValues>
        -2.5522980093955994e-01 4.6817624568939209e-01</leafValues></_>
    <_>
      <internalNodes>
        0 -1 10320 -67114241 -576993025 -683753542 486727643 -673243908
        1509498108 -3215366 -769</internalNodes>
      <leafValues>
        -1.9611009955406189e-01 5.4853892326354980e-01</leafValues></_>
    <_>
      <internalNodes>
        0 -1 12119 -176292043 -33555011 2145378239 -2097153 -38535681
        -4458053 -33686081 -1397751873</internalNodes>
      <leafValues>
        -2.0359423756599426e-01 4.4023254513740540e-01</leafValues></_>
    <_>
      <internalNodes>
        0 -1 26364 -3146054 -273679702 -118531408 -218105349 -201331122
        -872419445 -67114249 -5185</internalNodes>
      <leafValues>
        -2.3395241796970367e-01 3.6348161101341248e-01</leafValues></_>
    <_>
      <internalNodes>
        0 -1 14130 -838958680 -70571222 -214795054 2132704243 1290535336
        -538605272 -536982306 -633274371</internalNodes>
      <leafValues>
        -3.6577644944190979e-01 2.1640802919864655e-01</leafValues></_>
    <_>
      <internalNodes>
        0 -1 24521 980287496 -1244704697 -55578157 -2131861 -492113240
        -19989784 -533659653 -971318819</internalNodes>
      <leafValues>
        -3.5140174627304077e-01 1.9701065123081207e-01</leafValues></_>
    <_>
      <internalNodes>
        0 -1 14461 -1970106823 2069483219 -1207894275 -227351329
        -424670132 -72547761 -1074987012 -1085141987</internalNodes>
      <leafValues>
        -2.6665225625038147e-01 2.4395833909511566e-01</leafValues></_>
    <_>
      <internalNodes>
        0 -1 21062 -865080152 -1930121812 1798184074 -861340470
        1601532194 63300339 2137485095 286621047</internalNodes>
      <leafValues>
        -4.9974319338798523e-01 1.2002246081829071e-01</leafValues></_>
    <_>
      <internalNodes>
        0 -1 16396 -1209043033 -441521246 1358949318 -193875664
        184263595 -1966176374 1131400774 -33685875</internalNodes>
      <leafValues>
        -2.3593725264072418e-01 2.4814681708812714e-01</leafValues></_>
    <_>
      <internalNodes>
        0 -1 26289 1610079743 521926586 -306898512 -1078940710
        -168175363 473047463 2146650300 2147483614</internalNodes>
      <leafValues>
        -1.7314429581165314e-01 3.5200229287147522e-01</leafValues></_>
    <_>
      <internalNodes>
        0 -1 8382 -1024525389 -1459412270 392683518 1829175794
        1078490240 -1360321578 1078845428 1145533175</internalNodes>
      <leafValues>
        -3.8260602951049805e-01 1.5238131582736969e-01</leafValues></_>
    <_>
      <internalNodes>
        0 -1 19515 1561129180 -1985377350 -304096527 -1087374481
        -310474583 -811101527 -587368771 -936643926</internalNodes>
      <leafValues>
        -2.7197664976119995e-01 2.1144911646842957e-01</leafValues></_>
    <_>
      <internalNodes>
        0 -1 21866 -553909816 -604036884 382719180 1475153396 -500593998
        -2112294 -955196101 152126716</internalNodes>
      <leafValues>
        -3.8194254040718079e-01 1.5168945491313934e-01</leafValues></_>
    <_>
      <internalNodes>
        0 -1 17220 -1725893711 -142295648 -573050381 -547106636
        251395307 -1895849555 -1008802825 -1611725667</internalNodes>
      <leafValues>
        -1.9084905087947845e-01 2.9049405455589294e-01</leafValues></_>
    <_>
      <internalNodes>
        0 -1 12766 2145908647 -808997273 -581575083 1356827927 -2044978
        -87252602 1935533918 -11536545</internalNodes>
      <leafValues>
        -1.8365906178951263e-01 3.1822490692138672e-01</leafValues></_>
    <_>
      <internalNodes>
        0 -1 17797 3212580 1374951588 1900899215 2109702095 1907489647
        -237165663 -1369526514 566584846</internalNodes>
      <leafValues>
        -3.1758266687393188e-01 1.8047028779983521e-01</leafValues></_>
    <_>
      <internalNodes>
        0 -1 18843 1346846967 1451099101 -9545986 -6127653 1549802828
        2130673599 -861582980 -14534886</internalNodes>
      <leafValues>
        -2.3693048954010010e-01 2.4115599691867828e-01</leafValues></_>
    <_>
      <internalNodes>
        0 -1 22882 -738197712 -1163222854 -1386275372 -1612751915
        -36123719 672370600 496852349 -1626350837</internalNodes>
      <leafValues>
        -2.1440151333808899e-01 2.5169700384140015e-01</leafValues></_>
    <_>
      <internalNodes>
        0 -1 22601 -76398144 -53784101 1407022271 1543132147 1765458347
        -2954293 1111411179 1194510191</internalNodes>
      <leafValues>
        -2.7785781025886536e-01 1.8599936366081238e-01</leafValues></_>
    <_>
      <internalNodes>
        0 -1 16493 863646201 -208110705 864238938 522009511 -1555120227
        -2092530977 1249524447 -657293451</internalNodes>
      <leafValues>
        -2.0778785645961761e-01 2.5472763180732727e-01</leafValues></_>
    <_>
      <internalNodes>
        0 -1 11485 -1073165 -1416697970 -247992302 -202382334 243252894
        -1890609653 1442670227 1609556991</internalNodes>
      <leafValues>
        -2.0861278474330902e-01 2.6405060291290283e-01</leafValues></_>
    <_>
      <internalNodes>
        0 -1 11819 1256382524 286855805 -625959170 405154991 188710916
        195010357 -822609417 -615002517</internalNodes>
      <leafValues>
        -3.0019816756248474e-01 1.7203707993030548e-01</leafValues></_>
    <_>
      <internalNodes>
        0 -1 14080 722461611 -72380384 905949463 -211824300 1702494207
        -1900132350 1473729967 -685059019</internalNodes>
      <leafValues>
        -2.0265799760818481e-01 2.6035216450691223e-01</leafValues></_>
    <_>
      <internalNodes>
        0 -1 24483 -562052397 -44090339 318215151 861919999 -486544758
        -78517410 1895295726 -94372868</internalNodes>
      <leafValues>
        -1.3773177564144135e-01 3.7420374155044556e-01</leafValues></_>
    <_>
      <internalNodes>
        0 -1 18330 -580092903 -1626407540 1978465471 -1131872809
        1476344955 -1344127294 3863856 -421594117</internalNodes>
      <leafValues>
        -2.2329495847225189e-01 2.4270208179950714e-01</leafValues></_>
    <_>
      <internalNodes>
        0 -1 13130 -285973 -503388561 1920547388 1930557179 1321961608
        -821803381 -669858305 -682275249</internalNodes>
      <leafValues>
        -1.7573674023151398e-01 2.9947096109390259e-01</leafValues></_>
    <_>
      <internalNodes>
        0 -1 897 -26216785 1356852398 1628232238 -1796359281 -85594673
        -159924749 -9679330 -51102162</internalNodes>
      <leafValues>
        -1.8277925252914429e-01 2.8604391217231750e-01</leafValues></_>
    <_>
      <internalNodes>
        0 -1 12845 -758468108 -153094160 1931747936 -1325436304
        579138038 71614356 -771190546 285495476</internalNodes>
      <leafValues>
        -5.0983154773712158e-01 1.0623034834861755e-01</leafValues></_>
    <_>
      <internalNodes>
        0 -1 23975 -97559466 2016875611 1610821887 1920427495 -21001140
        -823720417 -1194546442 -93668646</internalNodes>
      <leafValues>
        -2.4758495390415192e-01 2.0767933130264282e-01</leafValues></_>
    <_>
      <internalNodes>
        0 -1 25866 -171989245 -1324961094 358337841 -171186511
        -397499926 -181491814 544844740 -1595412666</internalNodes>
      <leafValues>
        -1.9400700926780701e-01 2.7710002660751343e-01</leafValues></_>
    <_>
      <internalNodes>
        0 -1 24053 -1145959944 891444456 -2016515960 529750412
        -1422373638 2102649544 925033406 203015420</internalNodes>
      <leafValues>
        -3.2591724395751953e-01 1.5841589868068695e-01</leafValues></_>
    <_>
      <internalNodes>
        0 -1 25204 737588155 -1280660598 -1714454575 -204378636
        -386826247 -1130251848 -1860878467 1570198835</internalNodes>
      <leafValues>
        -2.2588315606117249e-01 2.2839581966400146e-01</leafValues></_>
    <_>
      <internalNodes>
        0 -1 22106 1243328128 -376918678 58636642 -1086780647 -979125459
        -988991320 551006455 1830612091</internalNodes>
      <leafValues>
        -2.7802315354347229e-01 1.8308602273464203e-01</leafValues></_>
    <_>
      <internalNodes>
        0 -1 10075 1656094480 256823082 668271984 1928530432 99887822
        1297902387 1120282097 2002472127</internalNodes>
      <leafValues>
        -3.7452393770217896e-01 1.3756185770034790e-01</leafValues></_>
    <_>
      <internalNodes>
        0 -1 18738 377228532 2113567839 -694362004 461332299 -1567614388
        -37109685 -923731331 989487051</internalNodes>
      <leafValues>
        -2.6255178451538086e-01 1.9756957888603210e-01</leafValues></_>
    <_>
      <internalNodes>
        0 -1 18322 -1173555452 -133853436 -1967816705 -126364837
        -90450043 -1634499148 216816868 -1650022331</internalNodes>
      <leafValues>
        -3.0334270000457764e-01 1.7335787415504456e-01</leafValues></_>
    <_>
      <internalNodes>
        0 -1 19911 -1001124500 1490560509 -811852466 -1086554341
        2029594333 1060654485 -1224721907 -1086832846</internalNodes>
      <leafValues>
        -2.6440373063087463e-01 1.9224563241004944e-01</leafValues></_>
    <_>
      <internalNodes>
        0 -1 775 1302523440 146794102 -1148428750 250391259 -76480671
        -408427801 -586749147 553108063</internalNodes>
      <leafValues>
        -3.6351388692855835e-01 1.3499873876571655e-01</leafValues></_>
    <_>
      <internalNodes>
        0 -1 10585 -201345418 -547957025 -1979039812 1532157178
        -1954611116 -581696418 -254480652 374544222</internalNodes>
      <leafValues>
        -2.7079090476036072e-01 1.8992291390895844e-01</leafValues></_>
    <_>
      <internalNodes>
        0 -1 16391 -1400199392 -1858420206 831747309 298139700 454172603
        447389963 789534106 1434606948</internalNodes>
      <leafValues>
        -3.8591435551643372e-01 1.2918049097061157e-01</leafValues></_>
    <_>
      <internalNodes>
        0 -1 6353 1361029602 -764534795 1826425646 802138092 -1829006256
        337915538 2110766764 1229243338</internalNodes>
      <leafValues>
        -3.0636563897132874e-01 1.5829294919967651e-01</leafValues></_>
    <_>
      <internalNodes>
        0 -1 13007 -1690586438 -742453121 469122910 1897584254
        -1920316168 422861948 783047918 -75869941</internalNodes>
      <leafValues>
        -2.0842102169990540e-01 2.3088619112968445e-01</leafValues></_>
    <_>
      <internalNodes>
        0 -1 18390 797994261 -274679904 -684592338 -12191088 -1955730963
        158706317 1362064629 278692804</internalNodes>
      <leafValues>
        -3.1768450140953064e-01 1.5040849149227142e-01</leafValues></_></weakClassifiers></stage13>
</opencv_storage>
