<?xml version="1.0"?>
<opencv_storage>
<cascade>
  <stageType>BOOST</stageType>
  <featureType>LBP</featureType>
  <height>32</height>
  <width>32</width>
  <stageParams>
    <boostType>GAB</boostType>
    <minHitRate>9.9900001287460327e-01</minHitRate>
    <maxFalseAlarm>5.0000000000000000e-01</maxFalseAlarm>
    <weightTrimRate>9.4999999999999996e-01</weightTrimRate>
    <maxDepth>1</maxDepth>
    <maxWeakCount>100</maxWeakCount></stageParams>
  <featureParams>
    <maxCatCount>256</maxCatCount>
    <featSize>1</featSize></featureParams>
  <stageNum>20</stageNum>
  <stages>
    <!-- stage 0 -->
    <_>
      <maxWeakCount>7</maxWeakCount>
      <stageThreshold>-1.7509208917617798e+00</stageThreshold>
      <weakClassifiers>
        <_>
          <internalNodes>
            0 -1 45 -70261886 -12329278 1073872904 1124585218 -481956096
            1073840896 1342415370 1397728011</internalNodes>
          <leafValues>
            -6.1104816198348999e-01 8.4488922357559204e-01</leafValues></_>
        <_>
          <internalNodes>
            0 -1 60 -9440526 -206637102 -209928048 -217336880 -523710232
            -821813248 -673885701 1473246191</internalNodes>
          <leafValues>
            -5.5187726020812988e-01 7.2835057973861694e-01</leafValues></_>
        <_>
          <internalNodes>
            0 -1 372 -145230059 1381201493 287478809 1343276319
            -702557438 1544754947 2047424026 270004507</internalNodes>
          <leafValues>
            -5.6261277198791504e-01 5.9027612209320068e-01</leafValues></_>
        <_>
          <internalNodes>
            0 -1 425 -33556039 -783814185 -870105032 -466554872
            1092342547 54743377 -100535552 1364713791</internalNodes>
          <leafValues>
            -5.5361461639404297e-01 5.2733659744262695e-01</leafValues></_>
        <_>
          <internalNodes>
            0 -1 36 -67109001 -894636209 -1035929869 -528432498
            -848603903 1191365893 1342544976 -720906417</internalNodes>
          <leafValues>
            -4.7962981462478638e-01 5.4622244834899902e-01</leafValues></_>
        <_>
          <internalNodes>
            0 -1 53 -530486 -946612710 12632543 1464030591 -1044217118
            134382084 1132692879 1162341963</internalNodes>
          <leafValues>
            -5.1362150907516479e-01 4.9964466691017151e-01</leafValues></_>
        <_>
          <internalNodes>
            0 -1 185 -203492387 -548144135 319455250 50462914 -2163973
            1242104282 1644821195 1598130123</internalNodes>
          <leafValues>
            -4.7879365086555481e-01 5.0821715593338013e-01</leafValues></_></weakClassifiers></_>
    <!-- stage 1 -->
    <_>
      <maxWeakCount>9</maxWeakCount>
      <stageThreshold>-2.0171971321105957e+00</stageThreshold>
      <weakClassifiers>
        <_>
          <internalNodes>
            0 -1 18 -137368946 -489952754 -1018181106 -940572725
            -783818752 1073741824 -682100913 1397225295</internalNodes>
          <leafValues>
            -4.7225710749626160e-01 8.1718069314956665e-01</leafValues></_>
        <_>
          <internalNodes>
            0 -1 83 -3334 -1575958 1343013000 -144719141 -229903638
            -1023097728 -227019781 -548408369</internalNodes>
          <leafValues>
            -4.1574078798294067e-01 7.7851903438568115e-01</leafValues></_>
        <_>
          <internalNodes>
            0 -1 70 -134222098 -69735442 1623158993 -68162577 -33558710
            21234436 -129 1464859487</internalNodes>
          <leafValues>
            -5.0811445713043213e-01 5.7056736946105957e-01</leafValues></_>
        <_>
          <internalNodes>
            0 -1 564 -93 -911546646 -17303776 -520883534 -840281344
            -989145344 -147328768 -941627561</internalNodes>
          <leafValues>
            -4.6635892987251282e-01 5.8967387676239014e-01</leafValues></_>
        <_>
          <internalNodes>
            0 -1 424 -65562 -6160930 -865337610 -182059169 -1440027902
            -1442063872 1073934850 -821035009</internalNodes>
          <leafValues>
            -4.2278662323951721e-01 5.6086736917495728e-01</leafValues></_>
        <_>
          <internalNodes>
            0 -1 89 -853926 -147325313 -662639390 -536712021 1280376852
            1315340101 -1057490209 -8696193</internalNodes>
          <leafValues>
            -4.8899993300437927e-01 4.4229915738105774e-01</leafValues></_>
        <_>
          <internalNodes>
            0 -1 500 -553653505 33535575 -218107149 846460529 -16873432
            -351343616 -251879246 -92541189</internalNodes>
          <leafValues>
            -3.7541699409484863e-01 5.4338085651397705e-01</leafValues></_>
        <_>
          <internalNodes>
            0 -1 35 -489689353 -831592914 1646921176 -989093210
            1078973944 1191363335 1164247511 1198521335</internalNodes>
          <leafValues>
            -4.6848291158676147e-01 4.2754590511322021e-01</leafValues></_>
        <_>
          <internalNodes>
            0 -1 224 -84085772 -201861176 285246224 1459652096 -85927014
            -1727331950 1477044931 1224934363</internalNodes>
          <leafValues>
            -5.7058715820312500e-01 3.1152284145355225e-01</leafValues></_></weakClassifiers></_>
    <!-- stage 2 -->
    <_>
      <maxWeakCount>16</maxWeakCount>
      <stageThreshold>-1.9491567611694336e+00</stageThreshold>
      <weakClassifiers>
        <_>
          <internalNodes>
            0 -1 287 -70256388 -581052964 -1073891084 -132105 -23528196
            -139267 -25827076 -1082150145</internalNodes>
          <leafValues>
            -1.7099511623382568e-01 8.1605392694473267e-01</leafValues></_>
        <_>
          <internalNodes>
            0 -1 5 -529596417 -806359041 1861216255 -268491777
            1076035583 -1881145345 1148711927 -34825</internalNodes>
          <leafValues>
            -3.1290957331657410e-01 7.1756494045257568e-01</leafValues></_>
        <_>
          <internalNodes>
            0 -1 366 -35652163 -1381372487 -3 -3 -67125319 -1917977795
            -1114792688 -1650467941</internalNodes>
          <leafValues>
            -3.3179184794425964e-01 6.1723309755325317e-01</leafValues></_>
        <_>
          <internalNodes>
            0 -1 377 -75500464 1062690644 1450400639 1347812693
            -50373033 -16877989 434100703 -1663042305</internalNodes>
          <leafValues>
            -4.4835969805717468e-01 4.2368978261947632e-01</leafValues></_>
        <_>
          <internalNodes>
            0 -1 532 -13 -1343226965 1409274353 -33597193 -10487032
            252443402 -975179600 -812647009</internalNodes>
          <leafValues>
            -3.5249891877174377e-01 5.1905798912048340e-01</leafValues></_>
        <_>
          <internalNodes>
            0 -1 23 -137 -287316217 -255857978 -285280002 -150208691
            1331031885 -725297359 -327876817</internalNodes>
          <leafValues>
            -3.9482155442237854e-01 4.0440651774406433e-01</leafValues></_>
        <_>
          <internalNodes>
            0 -1 138 -202051400 -201592078 -767290608 -695102636
            -86721861 -224915272 -749995170 2135943886</internalNodes>
          <leafValues>
            -5.0372147560119629e-01 3.0523920059204102e-01</leafValues></_>
        <_>
          <internalNodes>
            0 -1 209 -1911818317 -810827524 -374607113 -536885004
            -1886388289 -338699057 198046197 -1881205547</internalNodes>
          <leafValues>
            -3.1631889939308167e-01 4.6800857782363892e-01</leafValues></_>
        <_>
          <internalNodes>
            0 -1 272 -1348224005 -424762654 -243273231 -153193868
            -1413496853 -1972716581 1433335765 -553650185</internalNodes>
          <leafValues>
            -3.2610157132148743e-01 4.6793556213378906e-01</leafValues></_>
        <_>
          <internalNodes>
            0 -1 514 -8433577 -538999457 -1082654881 -546434465
            -1997604245 -69731643 857405439 -1206198438</internalNodes>
          <leafValues>
            -2.7038180828094482e-01 5.0080901384353638e-01</leafValues></_>
        <_>
          <internalNodes>
            0 -1 340 68164881 -539140609 -40961 -2479171 764689717
            -17185 -1611718721 -1433531352</internalNodes>
          <leafValues>
            -3.2728904485702515e-01 4.2815622687339783e-01</leafValues></_>
        <_>
          <internalNodes>
            0 -1 149 -12124209 -873486386 -10496417 -763376061 -10891801
            -807055930 1735876439 2138830674</internalNodes>
          <leafValues>
            -3.2724845409393311e-01 4.2174068093299866e-01</leafValues></_>
        <_>
          <internalNodes>
            0 -1 313 -1381303301 -349187216 -179055117 -545811023
            -1074806849 -808454148 -2013547529 -536879135</internalNodes>
          <leafValues>
            -2.5204294919967651e-01 5.3940361738204956e-01</leafValues></_>
        <_>
          <internalNodes>
            0 -1 578 -402661621 -816914433 -830472429 -307438611
            -806529263 1301254087 -319928512 -805310602</internalNodes>
          <leafValues>
            -2.8333291411399841e-01 4.7537180781364441e-01</leafValues></_>
        <_>
          <internalNodes>
            0 -1 500 -1157688653 335487103 1987245055 282784477
            -822105592 -336653800 -1292180841 -29361185</internalNodes>
          <leafValues>
            -3.2893079519271851e-01 4.1141581535339355e-01</leafValues></_>
        <_>
          <internalNodes>
            0 -1 409 -25542543 -547418881 1004229599 1385828987
            -23578449 -352415173 -1187463241 -1105055905</internalNodes>
          <leafValues>
            -3.1591606140136719e-01 4.0095570683479309e-01</leafValues></_></weakClassifiers></_>
    <!-- stage 3 -->
    <_>
      <maxWeakCount>16</maxWeakCount>
      <stageThreshold>-1.9441133737564087e+00</stageThreshold>
      <weakClassifiers>
        <_>
          <internalNodes>
            0 -1 165 1907531936 -6 1104245233 -134753285 -34894934
            -1081603960 -1258294789 -134219334</internalNodes>
          <leafValues>
            -1.9793388247489929e-01 7.9661327600479126e-01</leafValues></_>
        <_>
          <internalNodes>
            0 -1 25 -201854726 -2098177 1374004202 -18433 -203165454
            1887564768 1004911615 2145383311</internalNodes>
          <leafValues>
            -4.0741476416587830e-01 6.1040776968002319e-01</leafValues></_>
        <_>
          <internalNodes>
            0 -1 543 -67109912 -203424001 -219155806 -218103809 -1536
            -1048582962 -3148928 -134217985</internalNodes>
          <leafValues>
            -3.9624449610710144e-01 5.2885961532592773e-01</leafValues></_>
        <_>
          <internalNodes>
            0 -1 55 -890311689 -274270494 58686963 -2069 -816002049
            -538643477 327119863 -2057</internalNodes>
          <leafValues>
            -3.2873961329460144e-01 5.4135209321975708e-01</leafValues></_>
        <_>
          <internalNodes>
            0 -1 62 -201593089 -294736369 -260910337 -163381505
            -17477876 1296302085 -17302785 -146276769</internalNodes>
          <leafValues>
            -3.5999697446823120e-01 4.6188282966613770e-01</leafValues></_>
        <_>
          <internalNodes>
            0 -1 173 -137055496 -40791814 289478872 -616443401
            -1174259030 -1300229712 -602154021 1608465403</internalNodes>
          <leafValues>
            -5.1293277740478516e-01 3.1749007105827332e-01</leafValues></_>
        <_>
          <internalNodes>
            0 -1 599 -261 -269485406 -629247470 -788541901 -1069490
            -1981045799 -69218362 -16777225</internalNodes>
          <leafValues>
            -2.7605819702148438e-01 5.6070905923843384e-01</leafValues></_>
        <_>
          <internalNodes>
            0 -1 522 -83894689 -142617281 -218369290 1920662111
            -16791484 -9497582 -84624670 -84214017</internalNodes>
          <leafValues>
            -2.9377719759941101e-01 4.9865728616714478e-01</leafValues></_>
        <_>
          <internalNodes>
            0 -1 110 902279147 -405887070 1936948050 1886384928
            265285627 -967914741 2003261431 -146276361</internalNodes>
          <leafValues>
            -3.4364056587219238e-01 3.9887171983718872e-01</leafValues></_>
        <_>
          <internalNodes>
            0 -1 553 -1080034053 -1415060566 -573049488 -680042571
            -1416907008 789117696 1165718005 -811598663</internalNodes>
          <leafValues>
            -3.4053847193717957e-01 4.1836073994636536e-01</leafValues></_>
        <_>
          <internalNodes>
            0 -1 362 1067949240 -1658864624 1956084784 2004299378
            1559345597 -854795843 1895303324 70758643</internalNodes>
          <leafValues>
            -4.9569955468177795e-01 2.5725081562995911e-01</leafValues></_>
        <_>
          <internalNodes>
            0 -1 444 -192941289 1937760095 -717020338 -94453985
            -1508238577 -92302797 -203450198 -226824390</internalNodes>
          <leafValues>
            -3.0205556750297546e-01 4.2382475733757019e-01</leafValues></_>
        <_>
          <internalNodes>
            0 -1 159 -201336065 -276824082 -491855665 -218434833
            -134226354 -817922229 -218705305 -75825282</internalNodes>
          <leafValues>
            -2.4096499383449554e-01 4.9812793731689453e-01</leafValues></_>
        <_>
          <internalNodes>
            0 -1 128 59303225 -33287 -1712610305 -11631708 117788083
            -307265 1069441023 -1073802052</internalNodes>
          <leafValues>
            -2.2368267178535461e-01 5.3816825151443481e-01</leafValues></_>
        <_>
          <internalNodes>
            0 -1 460 -1208160788 -1523617554 -235934302 -16782852
            -138481 -581090036 -201333293 -555764235</internalNodes>
          <leafValues>
            -3.1337252259254456e-01 3.8263812661170959e-01</leafValues></_>
        <_>
          <internalNodes>
            0 -1 232 -204505367 -290541910 -50744079 -221266912
            -805570637 -835715260 1475082231 -671094793</internalNodes>
          <leafValues>
            -2.7577275037765503e-01 4.3725043535232544e-01</leafValues></_></weakClassifiers></_>
    <!-- stage 4 -->
    <_>
      <maxWeakCount>18</maxWeakCount>
      <stageThreshold>-1.8225023746490479e+00</stageThreshold>
      <weakClassifiers>
        <_>
          <internalNodes>
            0 -1 87 -548867334 2080037884 -840428550 -2169870
            -1031737174 -272059400 -873541121 -540064801</internalNodes>
          <leafValues>
            -1.8998236954212189e-01 7.8272658586502075e-01</leafValues></_>
        <_>
          <internalNodes>
            0 -1 68 -201593910 -2901042 826094073 2145386491 -71583250
            -1887426232 2078277631 2136211407</internalNodes>
          <leafValues>
            -4.2962339520454407e-01 5.7130652666091919e-01</leafValues></_>
        <_>
          <internalNodes>
            0 -1 550 -134218253 -1347683926 1431826929 -771760225
            -816844032 252378880 1146082513 1330642911</internalNodes>
          <leafValues>
            -4.5890545845031738e-01 4.1445252299308777e-01</leafValues></_>
        <_>
          <internalNodes>
            0 -1 231 1934938589 1977075033 286462170 520160578
            1540065247 429469919 1594858459 474285007</internalNodes>
          <leafValues>
            -4.9453032016754150e-01 3.5984143614768982e-01</leafValues></_>
        <_>
          <internalNodes>
            0 -1 19 -212339990 -218115357 -770834481 -816840753
            -241962501 1890959520 -212864273 1944056571</internalNodes>
          <leafValues>
            -4.2707270383834839e-01 3.7666165828704834e-01</leafValues></_>
        <_>
          <internalNodes>
            0 -1 562 -1050902 -1549074774 -760483296 -535895648 -2114622
            -735051953 -207621438 -136321025</internalNodes>
          <leafValues>
            -3.3052238821983337e-01 4.7681877017021179e-01</leafValues></_>
        <_>
          <internalNodes>
            0 -1 141 -275776517 -274017622 -134221325 -84945982
            -1916813397 -1884426614 1438642919 -3849</internalNodes>
          <leafValues>
            -2.6693823933601379e-01 5.1113820075988770e-01</leafValues></_>
        <_>
          <internalNodes>
            0 -1 94 -1412519969 -4294698 133780479 -1244190 1312833965
            533040772 262084607 530514122</internalNodes>
          <leafValues>
            -3.1296482682228088e-01 4.2665705084800720e-01</leafValues></_>
        <_>
          <internalNodes>
            0 -1 349 -783618028 526234892 -1630535841 1545598807
            -620806977 -89252957 -1730225189 -1735393377</internalNodes>
          <leafValues>
            -3.5718959569931030e-01 3.6037063598632812e-01</leafValues></_>
        <_>
          <internalNodes>
            0 -1 584 -67110917 -1984974930 -788827664 -755828229
            -34083221 -808473430 -136849453 -706744577</internalNodes>
          <leafValues>
            -2.5492817163467407e-01 4.6540072560310364e-01</leafValues></_>
        <_>
          <internalNodes>
            0 -1 186 598720426 -1506873438 -33869517 -218143839
            -1212170294 174841617 -163581710 -264222</internalNodes>
          <leafValues>
            -2.9788881540298462e-01 3.8840126991271973e-01</leafValues></_>
        <_>
          <internalNodes>
            0 -1 137 1862332153 -730611457 -1114514050 1479230491
            -1081024599 -1184200543 -1458712613 -610582309</internalNodes>
          <leafValues>
            -2.9423570632934570e-01 3.9734414219856262e-01</leafValues></_>
        <_>
          <internalNodes>
            0 -1 336 1196480336 1365031920 -753560840 -1277451184
            -597830731 -84292876 -167805975 998057986</internalNodes>
          <leafValues>
            -4.1696625947952271e-01 2.6094898581504822e-01</leafValues></_>
        <_>
          <internalNodes>
            0 -1 506 -1209679121 -1078987521 -1030134614 -236978449
            -16801460 -26258129 -151011101 -1049671</internalNodes>
          <leafValues>
            -2.3811306059360504e-01 4.5745348930358887e-01</leafValues></_>
        <_>
          <internalNodes>
            0 -1 47 -13201 -813765737 1124000505 -225395702 1329906765
            1594142315 -2039008001 -11186621</internalNodes>
          <leafValues>
            -3.1239539384841919e-01 3.5191327333450317e-01</leafValues></_>
        <_>
          <internalNodes>
            0 -1 511 -128189677 290581271 1253676852 994032447
            1282838811 1214117315 -251733442 -1596264838</internalNodes>
          <leafValues>
            -2.9331657290458679e-01 3.5540658235549927e-01</leafValues></_>
        <_>
          <internalNodes>
            0 -1 263 -1364263661 -1356681854 1476097425 -135397328
            -814874641 -1909473301 -682625803 -539035663</internalNodes>
          <leafValues>
            -3.0090993642807007e-01 3.6276581883430481e-01</leafValues></_>
        <_>
          <internalNodes>
            0 -1 66 -905252109 135421969 -108270209 -581487675
            -297647225 1606414583 168350691 -909152047</internalNodes>
          <leafValues>
            -3.1793752312660217e-01 3.3472108840942383e-01</leafValues></_></weakClassifiers></_>
    <!-- stage 5 -->
    <_>
      <maxWeakCount>21</maxWeakCount>
      <stageThreshold>-1.7572044134140015e+00</stageThreshold>
      <weakClassifiers>
        <_>
          <internalNodes>
            0 -1 386 -549724932 -4470536 494339413 -8397315 -537920003
            -2 1566380541 -1615090949</internalNodes>
          <leafValues>
            -5.0003007054328918e-02 7.8440475463867188e-01</leafValues></_>
        <_>
          <internalNodes>
            0 -1 100 -894763013 -269271045 -805307425 1609922421
            -1901424645 -1409290241 1296618495 -807443457</internalNodes>
          <leafValues>
            -2.8471955657005310e-01 6.4251452684402466e-01</leafValues></_>
        <_>
          <internalNodes>
            0 -1 26 -69889 -88940801 -561578241 -98500865 -11190707
            -547030673 -28987393 -12059777</internalNodes>
          <leafValues>
            -3.1972911953926086e-01 5.1138550043106079e-01</leafValues></_>
        <_>
          <internalNodes>
            0 -1 308 -153094379 2099638021 970399453 -19137665 -16925409
            -12600769 674216123 680508335</internalNodes>
          <leafValues>
            -3.8129290938377380e-01 4.3439328670501709e-01</leafValues></_>
        <_>
          <internalNodes>
            0 -1 549 -3085 -1347420502 -234884112 -150506352 -4207026
            -1911624422 -708856585 -537922561</internalNodes>
          <leafValues>
            -3.1529930233955383e-01 4.7445690631866455e-01</leafValues></_>
        <_>
          <internalNodes>
            0 -1 253 -229051368 -8716872 1947521583 -4923713 1589370879
            -4563552 69197359 146472074</internalNodes>
          <leafValues>
            -4.8861861228942871e-01 2.7767929434776306e-01</leafValues></_>
        <_>
          <internalNodes>
            0 -1 178 -814745125 -810886270 -103444270 -254316000
            -842006865 -1894077969 1473771443 -536872969</internalNodes>
          <leafValues>
            -2.8593468666076660e-01 4.4617468118667603e-01</leafValues></_>
        <_>
          <internalNodes>
            0 -1 554 -140509189 -1414873168 -570605067 -1717584519
            -1085554712 -1979074680 207582713 1327496699</internalNodes>
          <leafValues>
            -2.8966942429542542e-01 4.2546865344047546e-01</leafValues></_>
        <_>
          <internalNodes>
            0 -1 453 -1141093896 -4252212 -270549009 520703197
            -1145525574 -1145192226 -718213077 387155060</internalNodes>
          <leafValues>
            -4.7395750880241394e-01 2.3885300755500793e-01</leafValues></_>
        <_>
          <internalNodes>
            0 -1 135 -1028980998 -12846861 -1680115215 1978742545
            201867518 -1400715096 -1060776001 -67681807</internalNodes>
          <leafValues>
            -3.4890586137771606e-01 3.1368052959442139e-01</leafValues></_>
        <_>
          <internalNodes>
            0 -1 298 268441077 -2130051 -537306145 2102480362 510926840
            -213058 -1075871761 -1077009878</internalNodes>
          <leafValues>
            -2.2192664444446564e-01 4.9282512068748474e-01</leafValues></_>
        <_>
          <internalNodes>
            0 -1 448 -673189296 1006052868 914019962 810725971
            -2030106616 -822641152 8065650 442228315</internalNodes>
          <leafValues>
            -4.8470154404640198e-01 2.1939730644226074e-01</leafValues></_>
        <_>
          <internalNodes>
            0 -1 116 -126292230 2142048122 -820894878 -616848400
            139215094 -549187596 -941461509 -616217611</internalNodes>
          <leafValues>
            -3.7054067850112915e-01 2.8380998969078064e-01</leafValues></_>
        <_>
          <internalNodes>
            0 -1 77 -3147845 -275846198 1910993907 -135400794 -497047617
            -846277718 1466918871 -3148037</internalNodes>
          <leafValues>
            -2.1089312434196472e-01 5.1516473293304443e-01</leafValues></_>
        <_>
          <internalNodes>
            0 -1 524 -453014833 -144973829 1929312995 1925969916
            -84163508 -951079825 -495000862 -218431525</internalNodes>
          <leafValues>
            -2.5112974643707275e-01 3.9590969681739807e-01</leafValues></_>
        <_>
          <internalNodes>
            0 -1 547 1946149875 -1880817781 -713592783 -721684009
            -50344083 -1890659942 -713042976 -812647461</internalNodes>
          <leafValues>
            -2.4410499632358551e-01 4.3548721075057983e-01</leafValues></_>
        <_>
          <internalNodes>
            0 -1 150 -572725208 -809006938 -539764491 808540371
            -553627637 -1995701974 -674342433 1528385602</internalNodes>
          <leafValues>
            -3.9428538084030151e-01 2.5048416852951050e-01</leafValues></_>
        <_>
          <internalNodes>
            0 -1 198 -68421797 -279990706 1957849152 1918497527
            -51492280 1261309531 -88812862 -77661057</internalNodes>
          <leafValues>
            -2.6457586884498596e-01 3.5409879684448242e-01</leafValues></_>
        <_>
          <internalNodes>
            0 -1 206 -733896097 -1256407653 -2123551233 -1115841681
            -1719724033 -583717709 -50487331 -582930433</internalNodes>
          <leafValues>
            -2.1980085968971252e-01 4.3520000576972961e-01</leafValues></_>
        <_>
          <internalNodes>
            0 -1 458 -1141309969 -201671602 1459585006 1945108477
            -1638404850 -1089473524 -1011354921 -26739753</internalNodes>
          <leafValues>
            -2.2893798351287842e-01 4.1562512516975403e-01</leafValues></_>
        <_>
          <internalNodes>
            0 -1 390 453302940 -1090915843 -850026020 -1151724036
            536182517 -148995 1603270908 1051656866</internalNodes>
          <leafValues>
            -3.9770960807800293e-01 2.4129004776477814e-01</leafValues></_></weakClassifiers></_>
    <!-- stage 6 -->
    <_>
      <maxWeakCount>24</maxWeakCount>
      <stageThreshold>-1.6945986747741699e+00</stageThreshold>
      <weakClassifiers>
        <_>
          <internalNodes>
            0 -1 306 475310624 -1120026705 1163210717 -44171265 -152658
            -1114994034 -34226177 -1080217682</internalNodes>
          <leafValues>
            -1.3836127519607544e-01 7.1885985136032104e-01</leafValues></_>
        <_>
          <internalNodes>
            0 -1 86 -9240578 -8388641 2066939899 2067462655 -864371976
            -75825158 1484455935 -536912305</internalNodes>
          <leafValues>
            -3.1433051824569702e-01 5.5930721759796143e-01</leafValues></_>
        <_>
          <internalNodes>
            0 -1 16 -671617042 -136318001 219557839 -538979345
            -105119793 -218761822 -4988929 1968566223</internalNodes>
          <leafValues>
            -3.9739972352981567e-01 4.0196302533149719e-01</leafValues></_>
        <_>
          <internalNodes>
            0 -1 395 353391837 -688643 1896299518 -2147363 -7798787
            -2302503 1005109247 1069422824</internalNodes>
          <leafValues>
            -3.4480640292167664e-01 4.3194502592086792e-01</leafValues></_>
        <_>
          <internalNodes>
            0 -1 412 1941951504 1543475269 -151298209 844887893
            -2008048548 -67462 408934655 -1088684037</internalNodes>
          <leafValues>
            -4.0651324391365051e-01 3.2221487164497375e-01</leafValues></_>
        <_>
          <internalNodes>
            0 -1 315 1939928056 1979030266 386075534 1180009934
            956927466 -1177480536 1745206158 231670718</internalNodes>
          <leafValues>
            -5.5226677656173706e-01 1.7927131056785583e-01</leafValues></_>
        <_>
          <internalNodes>
            0 -1 584 -527373 -406062165 -235703821 -234884109 -1312854
            -1949372536 -9569549 -538969141</internalNodes>
          <leafValues>
            -2.2896023094654083e-01 5.2203035354614258e-01</leafValues></_>
        <_>
          <internalNodes>
            0 -1 28 -946156801 1610537693 -282376193 -287700892
            1359039861 498456508 1808748031 -55213</internalNodes>
          <leafValues>
            -2.9616484045982361e-01 3.6305934190750122e-01</leafValues></_>
        <_>
          <internalNodes>
            0 -1 507 -271584573 -284448760 1425388403 -708979791
            -278927608 -1928491256 -1186991951 1158671803</internalNodes>
          <leafValues>
            -3.3505094051361084e-01 3.1067863106727600e-01</leafValues></_>
        <_>
          <internalNodes>
            0 -1 514 -8695725 -606141163 -1098917409 525212255 -94762850
            -553910579 -1440025862 973261466</internalNodes>
          <leafValues>
            -3.4784713387489319e-01 3.0831137299537659e-01</leafValues></_>
        <_>
          <internalNodes>
            0 -1 181 1674192643 -976263422 354359155 1356808978
            -1409292377 185526530 1125381111 1381498481</internalNodes>
          <leafValues>
            -4.0027540922164917e-01 2.5512710213661194e-01</leafValues></_>
        <_>
          <internalNodes>
            0 -1 213 -1979526992 -549860176 -503582253 1609389433
            254521787 -5519170 -1925335305 500145305</internalNodes>
          <leafValues>
            -3.5403794050216675e-01 2.6760029792785645e-01</leafValues></_>
        <_>
          <internalNodes>
            0 -1 384 -1858734340 907126520 1437654892 -4202764 892640187
            -1089160141 202225916 741800679</internalNodes>
          <leafValues>
            -3.9671444892883301e-01 2.3548339307308197e-01</leafValues></_>
        <_>
          <internalNodes>
            0 -1 269 -77791456 -604293961 -1125844536 1383798867
            71916712 532287531 536809375 1488641526</internalNodes>
          <leafValues>
            -3.7940984964370728e-01 2.4167598783969879e-01</leafValues></_>
        <_>
          <internalNodes>
            0 -1 82 -402741522 -892539762 -13107634 2096033518
            -1208892581 1364695046 -1280314553 1432842863</internalNodes>
          <leafValues>
            -4.6702891588211060e-01 1.9901219010353088e-01</leafValues></_>
        <_>
          <internalNodes>
            0 -1 466 -270702176 -324735954 -579347055 -1726808168
            -1895058808 -1930716536 -1145621759 -1648400425</internalNodes>
          <leafValues>
            -3.4199470281600952e-01 2.6592692732810974e-01</leafValues></_>
        <_>
          <internalNodes>
            0 -1 289 89667660 1562185713 1540232446 1529895728 214175396
            1968523613 1610398207 945109267</internalNodes>
          <leafValues>
            -4.7821566462516785e-01 1.9646081328392029e-01</leafValues></_>
        <_>
          <internalNodes>
            0 -1 250 1916009300 1352097137 -1933846102 1084000357
            -189919606 -1195460673 -1615355970 -1057036758</internalNodes>
          <leafValues>
            -3.3907940983772278e-01 2.5733107328414917e-01</leafValues></_>
        <_>
          <internalNodes>
            0 -1 426 -1488273523 -1476442675 1829690870 1283440637
            777764672 -44156160 67340038 1323302847</internalNodes>
          <leafValues>
            -3.7199020385742188e-01 2.4211210012435913e-01</leafValues></_>
        <_>
          <internalNodes>
            0 -1 344 1529879825 824033073 2013245213 -1077970937
            -1347682371 -1080296274 -1717109368 -1347482179</internalNodes>
          <leafValues>
            -1.9090394675731659e-01 4.7795867919921875e-01</leafValues></_>
        <_>
          <internalNodes>
            0 -1 103 -1039139591 260810914 1263236054 -764448656
            1179561979 -269780296 1141664213 -881888014</internalNodes>
          <leafValues>
            -3.0571481585502625e-01 2.8738319873809814e-01</leafValues></_>
        <_>
          <internalNodes>
            0 -1 498 -58783651 -5431973 -1426402561 1918761711
            -289748788 -13162680 -117789461 -21319953</internalNodes>
          <leafValues>
            -1.9799497723579407e-01 4.4157320261001587e-01</leafValues></_>
        <_>
          <internalNodes>
            0 -1 208 -1895786343 -353576 -1621237797 -573156140
            -1435128143 -4850508 -1684414484 -1663762427</internalNodes>
          <leafValues>
            -2.4273282289505005e-01 3.4030815958976746e-01</leafValues></_>
        <_>
          <internalNodes>
            0 -1 155 -270225778 265006253 -28049834 -1868567812
            1532087368 1533265929 -169871529 1390313300</internalNodes>
          <leafValues>
            -4.3554463982582092e-01 1.9038102030754089e-01</leafValues></_></weakClassifiers></_>
    <!-- stage 7 -->
    <_>
      <maxWeakCount>26</maxWeakCount>
      <stageThreshold>-1.7646970748901367e+00</stageThreshold>
      <weakClassifiers>
        <_>
          <internalNodes>
            0 -1 91 -1510414 -69403652 -2350350 -1073995038 1603073982
            -540082180 -3206657 1540161967</internalNodes>
          <leafValues>
            -1.7704860866069794e-01 7.0271331071853638e-01</leafValues></_>
        <_>
          <internalNodes>
            0 -1 567 -4194317 -5245021 -241175823 -203424773 -1079251121
            -1894858965 1374680565 -536873729</internalNodes>
          <leafValues>
            -2.2319725155830383e-01 6.4115577936172485e-01</leafValues></_>
        <_>
          <internalNodes>
            0 -1 132 -34081003 -1107427395 -1078207201 -1077936193
            -262721 -1145328193 -1649418689 212860703</internalNodes>
          <leafValues>
            -3.2314053177833557e-01 4.6234014630317688e-01</leafValues></_>
        <_>
          <internalNodes>
            0 -1 201 -107265 -107298 -583114763 1601789015 -319140676
            -269607716 -21307429 -4521989</internalNodes>
          <leafValues>
            -2.6032936573028564e-01 4.9616515636444092e-01</leafValues></_>
        <_>
          <internalNodes>
            0 -1 142 -236457221 -810636638 1400857267 1916744497
            -810614789 -829493366 1474262007 -3147777</internalNodes>
          <leafValues>
            -3.0670043826103210e-01 4.1456058621406555e-01</leafValues></_>
        <_>
          <internalNodes>
            0 -1 424 -70451252 -221809 -565453066 1531313141 -1374954238
            -1949961437 587920691 -1425014785</internalNodes>
          <leafValues>
            -3.9686912298202515e-01 2.7563360333442688e-01</leafValues></_>
        <_>
          <internalNodes>
            0 -1 600 -67110329 -241696969 -138938645 -203950225
            -353370417 -5243061 -386925873 -520094081</internalNodes>
          <leafValues>
            -1.7245601117610931e-01 6.3839101791381836e-01</leafValues></_>
        <_>
          <internalNodes>
            0 -1 119 -6623462 -545347904 -366805318 993197807 -540254096
            526074384 1148212479 1534548999</internalNodes>
          <leafValues>
            -4.2100194096565247e-01 2.5407946109771729e-01</leafValues></_>
        <_>
          <internalNodes>
            0 -1 497 -67118505 -1149429155 -218180866 844673759
            -822113784 -347092384 -1563647050 -1418003457</internalNodes>
          <leafValues>
            -3.1227129697799683e-01 3.1085976958274841e-01</leafValues></_>
        <_>
          <internalNodes>
            0 -1 276 1911575513 1599583448 420559448 521085697
            1070773919 249235851 436870894 1522827077</internalNodes>
          <leafValues>
            -3.6857730150222778e-01 2.5246509909629822e-01</leafValues></_>
        <_>
          <internalNodes>
            0 -1 570 -1087768591 -1081540688 -235151375 -2232331
            -1097859079 -1413966339 -544490243 -35335</internalNodes>
          <leafValues>
            -1.9356398284435272e-01 4.7354748845100403e-01</leafValues></_>
        <_>
          <internalNodes>
            0 -1 17 -990908430 1333767043 1622112626 -1342223178
            1078958067 -563124233 1153946852 1164403924</internalNodes>
          <leafValues>
            -4.1200610995292664e-01 2.2866104543209076e-01</leafValues></_>
        <_>
          <internalNodes>
            0 -1 447 1623999573 -2140417 -83951906 1928756447
            -1346876340 -8838953 -84612401 -1146607618</internalNodes>
          <leafValues>
            -2.9073673486709595e-01 3.0633890628814697e-01</leafValues></_>
        <_>
          <internalNodes>
            0 -1 432 1563549176 -1440682328 1460796925 -4328963
            -1962963720 -806368348 -574239267 218322161</internalNodes>
          <leafValues>
            -3.9998596906661987e-01 2.1136710047721863e-01</leafValues></_>
        <_>
          <internalNodes>
            0 -1 229 -1083933 -1014061278 1457256082 -768134368
            -85465362 -829631894 2007971668 -570426380</internalNodes>
          <leafValues>
            -2.8631538152694702e-01 3.0238765478134155e-01</leafValues></_>
        <_>
          <internalNodes>
            0 -1 537 -780156397 -245899489 1390404351 945814527
            -86095718 -578857149 1928000186 -93652402</internalNodes>
          <leafValues>
            -2.3097632825374603e-01 3.6845609545707703e-01</leafValues></_>
        <_>
          <internalNodes>
            0 -1 310 -1732595024 -40266571 1604321267 -539534243
            -1363478021 -557853699 737852155 -1678009955</internalNodes>
          <leafValues>
            -3.1812658905982971e-01 2.6905688643455505e-01</leafValues></_>
        <_>
          <internalNodes>
            0 -1 501 -1292091172 -671414825 1866948590 2133804255
            -496310045 -169487275 589545391 524024185</internalNodes>
          <leafValues>
            -3.5471975803375244e-01 2.3911605775356293e-01</leafValues></_>
        <_>
          <internalNodes>
            0 -1 295 571749316 1971102448 823408768 584033006 386671085
            1973743277 1057306606 999889418</internalNodes>
          <leafValues>
            -4.4114983081817627e-01 1.9956544041633606e-01</leafValues></_>
        <_>
          <internalNodes>
            0 -1 508 -68161617 782143295 1599334274 -1733100148
            -11575985 800980655 -370247614 -925892901</internalNodes>
          <leafValues>
            -3.0780375003814697e-01 2.6957130432128906e-01</leafValues></_>
        <_>
          <internalNodes>
            0 -1 245 -623914262 -335666937 1660450818 -95249602
            -486670268 -900134902 -226995532 -208470049</internalNodes>
          <leafValues>
            -2.7825227379798889e-01 2.9125446081161499e-01</leafValues></_>
        <_>
          <internalNodes>
            0 -1 221 -1111559760 2077446589 -1617697864 1609647465
            -1717847056 2144529405 -1077964289 430575069</internalNodes>
          <leafValues>
            -4.0002381801605225e-01 2.0454761385917664e-01</leafValues></_>
        <_>
          <internalNodes>
            0 -1 33 -676139282 -541892835 97657343 242651103 382231512
            1900120768 -1640256531 1984384836</internalNodes>
          <leafValues>
            -4.0109547972679138e-01 2.1779839694499969e-01</leafValues></_>
        <_>
          <internalNodes>
            0 -1 136 1646455804 -1358995881 -550265209 1185370451
            1113885948 -1526802948 -556926225 1672463666</internalNodes>
          <leafValues>
            -3.6867073178291321e-01 2.1257361769676208e-01</leafValues></_>
        <_>
          <internalNodes>
            0 -1 317 -1425476655 -376900382 1935102035 -178146704
            -1695947869 -1882679365 131724177 215602676</internalNodes>
          <leafValues>
            -3.5312935709953308e-01 2.2754037380218506e-01</leafValues></_>
        <_>
          <internalNodes>
            0 -1 297 1678004308 2115590517 -1091903697 764943644
            -21171772 -1141148682 -540132417 -1430639285</internalNodes>
          <leafValues>
            -3.0498147010803223e-01 2.5843596458435059e-01</leafValues></_></weakClassifiers></_>
    <!-- stage 8 -->
    <_>
      <maxWeakCount>30</maxWeakCount>
      <stageThreshold>-1.7291971445083618e+00</stageThreshold>
      <weakClassifiers>
        <_>
          <internalNodes>
            0 -1 333 -715851016 -2113539 1876800250 -1068816 -543360068
            -34310660 -69231622 -2278678</internalNodes>
          <leafValues>
            -7.7826723456382751e-02 7.2079086303710938e-01</leafValues></_>
        <_>
          <internalNodes>
            0 -1 530 -67109901 -8390021 1440469200 -134218757 -8389109
            -15746807 1935143090 -552600689</internalNodes>
          <leafValues>
            -2.5067663192749023e-01 5.8619970083236694e-01</leafValues></_>
        <_>
          <internalNodes>
            0 -1 78 -67372289 -71644993 -1213542662 320524442 -551861762
            1506630779 -134260514 -536871425</internalNodes>
          <leafValues>
            -2.1118842065334320e-01 6.2967354059219360e-01</leafValues></_>
        <_>
          <internalNodes>
            0 -1 67 -353701894 -69522433 -8388641 2113093617 -1427592198
            -1426849793 -272302081 1608607703</internalNodes>
          <leafValues>
            -4.1382193565368652e-01 3.1735068559646606e-01</leafValues></_>
        <_>
          <internalNodes>
            0 -1 61 -8394833 -814817281 1888699130 -253758838 -8925433
            1329063701 -144182021 2001204807</internalNodes>
          <leafValues>
            -4.1732263565063477e-01 2.4918875098228455e-01</leafValues></_>
        <_>
          <internalNodes>
            0 -1 591 -3241 -2119502022 -33566660 -69 -2102610
            -1162158376 -19922984 -16778241</internalNodes>
          <leafValues>
            -1.9581955671310425e-01 5.4108762741088867e-01</leafValues></_>
        <_>
          <internalNodes>
            0 -1 505 -8519697 -167775105 -138423378 -738197539 -67241397
            2001712158 -143920137 -1025</internalNodes>
          <leafValues>
            -1.9761872291564941e-01 5.2375477552413940e-01</leafValues></_>
        <_>
          <internalNodes>
            0 -1 378 -1226836400 -1617068332 -1126336897 341179484
            -84263186 -17141542 283869855 -1629487521</internalNodes>
          <leafValues>
            -3.6142390966415405e-01 2.9165574908256531e-01</leafValues></_>
        <_>
          <internalNodes>
            0 -1 568 -1078199015 -1147460080 -664350217 -76546179
            -1088767096 -1079285728 539158010 1604832765</internalNodes>
          <leafValues>
            -3.0139619112014771e-01 3.1096354126930237e-01</leafValues></_>
        <_>
          <internalNodes>
            0 -1 371 -419431661 1987510255 -184615890 -188547130
            851386142 -1140879361 -419775682 276234110</internalNodes>
          <leafValues>
            -3.8025197386741638e-01 2.3960575461387634e-01</leafValues></_>
        <_>
          <internalNodes>
            0 -1 225 1945433081 -170000387 386085376 1527779904
            -991118337 2094355423 408793595 1482013679</internalNodes>
          <leafValues>
            -3.6646789312362671e-01 2.5614970922470093e-01</leafValues></_>
        <_>
          <internalNodes>
            0 -1 227 -9438237 -273708414 -705228431 -151568976
            -1427197969 -811090063 2010117878 -537921549</internalNodes>
          <leafValues>
            -2.1985538303852081e-01 3.9423984289169312e-01</leafValues></_>
        <_>
          <internalNodes>
            0 -1 120 -26020106 1062700540 2142566098 1529019391
            1316618432 1847381324 -898463495 1534546503</internalNodes>
          <leafValues>
            -3.9275494217872620e-01 2.2825260460376740e-01</leafValues></_>
        <_>
          <internalNodes>
            0 -1 307 -1655325644 -1176687260 1457307133 -119671873
            -50354953 -1081067867 -533618451 772778796</internalNodes>
          <leafValues>
            -3.3798012137413025e-01 2.4443455040454865e-01</leafValues></_>
        <_>
          <internalNodes>
            0 -1 248 860886812 1985596997 -1812493570 870142189
            -1575957507 1393584008 -1181771090 464132281</internalNodes>
          <leafValues>
            -3.1829831004142761e-01 2.4285106360912323e-01</leafValues></_>
        <_>
          <internalNodes>
            0 -1 20 -2138900609 1124066510 -1912810545 -453254138
            1883306871 1383985890 -967707323 -1268779721</internalNodes>
          <leafValues>
            -3.5443979501724243e-01 2.1650807559490204e-01</leafValues></_>
        <_>
          <internalNodes>
            0 -1 601 -539058 -145495201 -428582871 1919408755 1445825090
            -551027213 -1569234738 -757667894</internalNodes>
          <leafValues>
            -2.1594732999801636e-01 3.5987055301666260e-01</leafValues></_>
        <_>
          <internalNodes>
            0 -1 504 -1075891670 721316475 -230001998 853398239
            -210241016 1852602890 -1307330912 -201872385</internalNodes>
          <leafValues>
            -3.6785671114921570e-01 2.0774219930171967e-01</leafValues></_>
        <_>
          <internalNodes>
            0 -1 255 304151072 408621081 1624727630 1560215623
            -1413825864 -68492877 423337913 958029183</internalNodes>
          <leafValues>
            -4.3911695480346680e-01 1.5907584130764008e-01</leafValues></_>
        <_>
          <internalNodes>
            0 -1 573 -226803694 -136359345 2043713843 905870171
            -796340006 -2029808978 1077604860 1511682890</internalNodes>
          <leafValues>
            -3.0057489871978760e-01 2.3613026738166809e-01</leafValues></_>
        <_>
          <internalNodes>
            0 -1 358 -1879000836 -1878279878 1999764396 -10011948
            356563379 2020940087 676182180 1015853543</internalNodes>
          <leafValues>
            -4.1388082504272461e-01 1.7654010653495789e-01</leafValues></_>
        <_>
          <internalNodes>
            0 -1 30 -832130329 -1496464977 -2102412129 -436543382
            -364030769 -336874241 -830492161 -859508384</internalNodes>
          <leafValues>
            -2.5318130850791931e-01 2.8176680207252502e-01</leafValues></_>
        <_>
          <internalNodes>
            0 -1 184 853873443 -942748758 -261130190 852882194
            1773648879 1246536582 1366790903 1189606110</internalNodes>
          <leafValues>
            -3.5697153210639954e-01 2.1502907574176788e-01</leafValues></_>
        <_>
          <internalNodes>
            0 -1 436 -348939880 -1440577368 1014322516 1953945593
            1513820584 -1892369476 1499812253 68279369</internalNodes>
          <leafValues>
            -4.5277872681617737e-01 1.7048160731792450e-01</leafValues></_>
        <_>
          <internalNodes>
            0 -1 300 1632942052 1419018127 627025903 -34608657
            1634072047 1962256072 -1109413970 -154285394</internalNodes>
          <leafValues>
            -2.6294609904289246e-01 2.9269760847091675e-01</leafValues></_>
        <_>
          <internalNodes>
            0 -1 305 268450736 -738670356 -2056510724 -646115151
            -1760436303 -1431713112 925274789 -1883305507</internalNodes>
          <leafValues>
            -2.9031011462211609e-01 2.5297769904136658e-01</leafValues></_>
        <_>
          <internalNodes>
            0 -1 449 -50921225 -142647457 -803737386 845098751
            -744305588 -1082419170 -124584967 1047176935</internalNodes>
          <leafValues>
            -2.7532783150672913e-01 2.7716460824012756e-01</leafValues></_>
        <_>
          <internalNodes>
            0 -1 161 -623386889 -814986673 1616413424 1350099935
            -260366776 -1911874719 1959327452 -751376566</internalNodes>
          <leafValues>
            -2.6009348034858704e-01 2.7950531244277954e-01</leafValues></_>
        <_>
          <internalNodes>
            0 -1 381 -505641824 -59374236 537072494 1562693218 867209907
            -1695645514 488730660 792018000</internalNodes>
          <leafValues>
            -5.0561702251434326e-01 1.4428651332855225e-01</leafValues></_>
        <_>
          <internalNodes>
            0 -1 32 1920973738 -252104201 867387303 1556061497
            1962570132 -1398760992 2046780267 1975891276</internalNodes>
          <leafValues>
            -3.7171310186386108e-01 1.9069279730319977e-01</leafValues></_></weakClassifiers></_>
    <!-- stage 9 -->
    <_>
      <maxWeakCount>30</maxWeakCount>
      <stageThreshold>-1.6638599634170532e+00</stageThreshold>
      <weakClassifiers>
        <_>
          <internalNodes>
            0 -1 389 1475730932 -134230536 523734524 -1 1602180349
            -1410334721 1601523037 1059848187</internalNodes>
          <leafValues>
            -6.7745193839073181e-02 6.9914770126342773e-01</leafValues></_>
        <_>
          <internalNodes>
            0 -1 104 -1882783745 -280565002 234693367 -57168 266141695
            -805308673 1071608823 -63497</internalNodes>
          <leafValues>
            -2.8301015496253967e-01 5.2282470464706421e-01</leafValues></_>
        <_>
          <internalNodes>
            0 -1 552 -6291533 -1347421262 -202637583 -134226512 -2105844
            -1356079813 -687868427 -536873483</internalNodes>
          <leafValues>
            -3.2830861210823059e-01 4.2447170615196228e-01</leafValues></_>
        <_>
          <internalNodes>
            0 -1 572 -134744313 -233 -168306721 -201 -184551681
            -87311424 1694498783 -260046849</internalNodes>
          <leafValues>
            -2.0517086982727051e-01 5.7740616798400879e-01</leafValues></_>
        <_>
          <internalNodes>
            0 -1 144 -20482077 -284294398 1610088274 1378170659
            -337707025 -833827448 -12060745 -10485761</internalNodes>
          <leafValues>
            -3.1844577193260193e-01 3.4265694022178650e-01</leafValues></_>
        <_>
          <internalNodes>
            0 -1 90 -41473 -539579026 -152904193 1560960479 -69314340
            -554154860 -158151169 -577086209</internalNodes>
          <leafValues>
            -2.7133223414421082e-01 3.8415673375129700e-01</leafValues></_>
        <_>
          <internalNodes>
            0 -1 481 939467759 -436292097 1657239295 1926881276
            -494945784 1180695117 1123906534 1861091326</internalNodes>
          <leafValues>
            -3.3204230666160583e-01 2.6481515169143677e-01</leafValues></_>
        <_>
          <internalNodes>
            0 -1 571 -536914473 -83886081 -117440513 -9733 -587530273
            -327701 -2433025 -4522177</internalNodes>
          <leafValues>
            -1.6911327838897705e-01 5.1996940374374390e-01</leafValues></_>
        <_>
          <internalNodes>
            0 -1 117 -1151339781 -71581445 266272508 1597689082
            1058996476 1290491096 195730654 -541401860</internalNodes>
          <leafValues>
            -2.3840276896953583e-01 3.6596661806106567e-01</leafValues></_>
        <_>
          <internalNodes>
            0 -1 220 -1356158973 -134266875 1595890003 1474283637
            -1431587841 -1142044185 782236670 -676668043</internalNodes>
          <leafValues>
            -2.9703652858734131e-01 2.7046450972557068e-01</leafValues></_>
        <_>
          <internalNodes>
            0 -1 585 -1682178183 -1147472816 1464328177 -76154507
            -1078206791 -1078231755 129752319 -545268291</internalNodes>
          <leafValues>
            -2.2120825946331024e-01 3.6021727323532104e-01</leafValues></_>
        <_>
          <internalNodes>
            0 -1 236 -814038367 892471555 -785131505 305287474
            -1836433109 1409270247 1534844779 1517540154</internalNodes>
          <leafValues>
            -3.3368435502052307e-01 2.3179797828197479e-01</leafValues></_>
        <_>
          <internalNodes>
            0 -1 496 -10528515 -537977377 -1141113921 -604352137 -227080
            -2429765 -74908674 -88416257</internalNodes>
          <leafValues>
            -1.9412355124950409e-01 3.9820954203605652e-01</leafValues></_>
        <_>
          <internalNodes>
            0 -1 487 -1115822194 -268435585 1980555502 -352325642
            -202053108 2004762495 -52436745 -133260</internalNodes>
          <leafValues>
            -2.7509403228759766e-01 2.9228445887565613e-01</leafValues></_>
        <_>
          <internalNodes>
            0 -1 240 88388604 -1789587659 386925032 1595195600 173066990
            -1647023242 526253021 1359303639</internalNodes>
          <leafValues>
            -4.5426884293556213e-01 1.7795434594154358e-01</leafValues></_>
        <_>
          <internalNodes>
            0 -1 88 -222305688 1206870279 -84025090 -184704322
            1610597632 1594658569 -138945033 1464289027</internalNodes>
          <leafValues>
            -3.8766664266586304e-01 1.8530704081058502e-01</leafValues></_>
        <_>
          <internalNodes>
            0 -1 4 -1062736073 -806984030 -410049607 -541929014
            1901060093 -272118577 1729586871 -24119097</internalNodes>
          <leafValues>
            -2.4160856008529663e-01 3.0967059731483459e-01</leafValues></_>
        <_>
          <internalNodes>
            0 -1 451 1985682557 -10518665 -1027939585 845085951
            -84161463 -12861571 2050292461 -96553036</internalNodes>
          <leafValues>
            -2.5263333320617676e-01 2.7336710691452026e-01</leafValues></_>
        <_>
          <internalNodes>
            0 -1 234 659301805 -943526614 2010628178 -756076750
            1659354082 168488842 1472192373 1431306231</internalNodes>
          <leafValues>
            -3.4568157792091370e-01 2.0720015466213226e-01</leafValues></_>
        <_>
          <internalNodes>
            0 -1 469 -612446093 -729877193 -747143397 -15011071
            138608826 -118531409 -1839526866 -1710557358</internalNodes>
          <leafValues>
            -2.6899886131286621e-01 2.6121479272842407e-01</leafValues></_>
        <_>
          <internalNodes>
            0 -1 292 -411673099 871766973 -1191395331 469326943
            -1209262599 -541261955 -84608003 -1078314049</internalNodes>
          <leafValues>
            -2.3968757688999176e-01 3.0439585447311401e-01</leafValues></_>
        <_>
          <internalNodes>
            0 -1 170 -335499304 469137373 524229957 1475433296
            -1917139468 -1225127784 -370814977 -1208535806</internalNodes>
          <leafValues>
            -3.3883595466613770e-01 2.0645274221897125e-01</leafValues></_>
        <_>
          <internalNodes>
            0 -1 275 -37923728 1601564433 2075852436 1576660863
            -1091022476 -1701790290 -1074078842 -1172136097</internalNodes>
          <leafValues>
            -2.8582334518432617e-01 2.4504871666431427e-01</leafValues></_>
        <_>
          <internalNodes>
            0 -1 556 -1078968463 -1112085064 -545395753 -70155
            -1745223685 -262145 800808703 -285795852</internalNodes>
          <leafValues>
            -2.2417466342449188e-01 3.1364887952804565e-01</leafValues></_>
        <_>
          <internalNodes>
            0 -1 131 1360642479 1356567231 281177579 1369234879
            2008415711 -175053904 1437917179 -796079222</internalNodes>
          <leafValues>
            -2.1516920626163483e-01 3.3805799484252930e-01</leafValues></_>
        <_>
          <internalNodes>
            0 -1 200 -151015857 -277880881 984820450 -627378689
            -88187828 -1887482273 -253096244 -97329285</internalNodes>
          <leafValues>
            -2.4777266383171082e-01 2.8374344110488892e-01</leafValues></_>
        <_>
          <internalNodes>
            0 -1 400 -1276055864 -552737884 1822220143 497966966
            634751147 1006410912 1818928 118483702</internalNodes>
          <leafValues>
            -3.9173498749732971e-01 1.8038333952426910e-01</leafValues></_>
        <_>
          <internalNodes>
            0 -1 533 -973080022 -873797701 -573630544 -21610504
            -2124686544 -894702611 -1294663071 -858915902</internalNodes>
          <leafValues>
            -3.1599736213684082e-01 2.2739282250404358e-01</leafValues></_>
        <_>
          <internalNodes>
            0 -1 488 -35868254 -467617238 649954002 -508429317
            -1022562807 520954376 1658168499 471662141</internalNodes>
          <leafValues>
            -3.7019190192222595e-01 1.8344348669052124e-01</leafValues></_>
        <_>
          <internalNodes>
            0 -1 219 202109687 -1886717014 1009734451 -87427920
            -1386382593 737911759 1107138533 1340990965</internalNodes>
          <leafValues>
            -3.3460327982902527e-01 2.0438531041145325e-01</leafValues></_></weakClassifiers></_>
    <!-- stage 10 -->
    <_>
      <maxWeakCount>35</maxWeakCount>
      <stageThreshold>-1.6783934831619263e+00</stageThreshold>
      <weakClassifiers>
        <_>
          <internalNodes>
            0 -1 580 -527429 -1078199304 -142618500 -12847748
            -1087112261 1058054584 1527864537 2134105597</internalNodes>
          <leafValues>
            6.6681474447250366e-02 7.5197488069534302e-01</leafValues></_>
        <_>
          <internalNodes>
            0 -1 419 -5 -769 -139726977 -570427393 -542115037
            -1275596109 -282068173 -135269377</internalNodes>
          <leafValues>
            -2.0542235672473907e-01 5.5459040403366089e-01</leafValues></_>
        <_>
          <internalNodes>
            0 -1 49 -257 -608514 2118123263 -622408961 -75710898
            -12302268 -16777249 -12058881</internalNodes>
          <leafValues>
            -2.6368725299835205e-01 4.4799253344535828e-01</leafValues></_>
        <_>
          <internalNodes>
            0 -1 197 -46637795 1572601695 -284152136 1073678879
            -332858309 -4532363 -4317185 -1096147777</internalNodes>
          <leafValues>
            -3.0719316005706787e-01 3.4617879986763000e-01</leafValues></_>
        <_>
          <internalNodes>
            0 -1 542 -1145431810 -1691218948 -1143203336 1059721692
            725332666 940602008 640396792 2098775289</internalNodes>
          <leafValues>
            -4.4133138656616211e-01 1.9520817697048187e-01</leafValues></_>
        <_>
          <internalNodes>
            0 -1 99 -294983694 1877641904 1341127539 1607807731
            -297605134 1862003701 -816228880 1341080791</internalNodes>
          <leafValues>
            -4.1143915057182312e-01 2.0377534627914429e-01</leafValues></_>
        <_>
          <internalNodes>
            0 -1 347 -1110549480 1058366732 -1235222545 336460757
            217997055 -88178933 13565151 -1633911096</internalNodes>
          <leafValues>
            -4.3476217985153198e-01 1.8202723562717438e-01</leafValues></_>
        <_>
          <internalNodes>
            0 -1 595 -536874053 -1884553302 -223878925 -220201281
            -7341089 -1891369961 -721686297 -536871937</internalNodes>
          <leafValues>
            -1.8653687834739685e-01 4.3380561470985413e-01</leafValues></_>
        <_>
          <internalNodes>
            0 -1 522 -16785825 2002212703 -662900033 1919674735
            -67139508 -5386913 -1158873374 -85278913</internalNodes>
          <leafValues>
            -2.4816285073757172e-01 3.2478383183479309e-01</leafValues></_>
        <_>
          <internalNodes>
            0 -1 523 -84147936 -722071306 2084985822 -1247862785
            -249890902 1905743792 757301242 119217501</internalNodes>
          <leafValues>
            -4.1643580794334412e-01 1.8944625556468964e-01</leafValues></_>
        <_>
          <internalNodes>
            0 -1 606 -1 -1623544834 -672195684 -1213205538 -2359297
            1027324847 -35659939 -1</internalNodes>
          <leafValues>
            -1.3572667539119720e-01 5.8076828718185425e-01</leafValues></_>
        <_>
          <internalNodes>
            0 -1 493 -1364673775 -1364690016 -32779 -4326923 -1145047041
            -1884618853 232777149 -1645280011</internalNodes>
          <leafValues>
            -2.2061367332935333e-01 3.2206884026527405e-01</leafValues></_>
        <_>
          <internalNodes>
            0 -1 233 -1078133072 -84156360 467038716 1442272308
            -1096345164 943191734 465509884 1359631804</internalNodes>
          <leafValues>
            -3.7036657333374023e-01 1.8926425278186798e-01</leafValues></_>
        <_>
          <internalNodes>
            0 -1 73 -522000686 -168577040 1876131824 2012363538
            1221478654 -1090526029 -454066241 -1883213</internalNodes>
          <leafValues>
            -3.2109117507934570e-01 2.1203111112117767e-01</leafValues></_>
        <_>
          <internalNodes>
            0 -1 118 -218698230 1800384335 -227362062 -765461781
            -839925748 1259635342 -680689505 2001719108</internalNodes>
          <leafValues>
            -3.3724209666252136e-01 1.9299873709678650e-01</leafValues></_>
        <_>
          <internalNodes>
            0 -1 397 -156252605 1918038364 -1094993377 807434782
            -1757509362 939237195 381336894 351531867</internalNodes>
          <leafValues>
            -3.5382923483848572e-01 1.8125657737255096e-01</leafValues></_>
        <_>
          <internalNodes>
            0 -1 388 1006943388 102580152 2080219130 -4195020 297645885
            -1263435805 809875644 1035165939</internalNodes>
          <leafValues>
            -3.6360961198806763e-01 1.8407244980335236e-01</leafValues></_>
        <_>
          <internalNodes>
            0 -1 74 -674234629 -273751510 1122464627 -773851422
            1867497151 -833622033 1708095479 -540018959</internalNodes>
          <leafValues>
            -2.0283196866512299e-01 3.3243992924690247e-01</leafValues></_>
        <_>
          <internalNodes>
            0 -1 230 -404559960 -819228886 -1217967918 -767092973
            1398537697 -888493142 -618668101 -112197834</internalNodes>
          <leafValues>
            -2.4297851324081421e-01 2.6443874835968018e-01</leafValues></_>
        <_>
          <internalNodes>
            0 -1 27 -685314073 -201528738 -312635401 -277083066
            1433471477 -1198372929 -3196093 2147444069</internalNodes>
          <leafValues>
            -2.6432582736015320e-01 2.5096642971038818e-01</leafValues></_>
        <_>
          <internalNodes>
            0 -1 455 -1085459843 -1140893489 -497667075 308344287
            -807942052 -10804695 1727330556 2121586676</internalNodes>
          <leafValues>
            -3.2157638669013977e-01 1.8863184750080109e-01</leafValues></_>
        <_>
          <internalNodes>
            0 -1 445 -168144643 1509825591 -1071138 -884777 -141927277
            -4522505 -113609473 -1155368065</internalNodes>
          <leafValues>
            -1.8709747493267059e-01 3.2843840122222900e-01</leafValues></_>
        <_>
          <internalNodes>
            0 -1 392 1279586160 -19548176 -1474487332 -1289816071
            1591048189 1870511868 -2009909000 1055728194</internalNodes>
          <leafValues>
            -3.6489188671112061e-01 1.6662541031837463e-01</leafValues></_>
        <_>
          <internalNodes>
            0 -1 270 -1166094501 1035184602 856917960 439500566
            -25178304 986395395 -1358114870 -119038786</internalNodes>
          <leafValues>
            -2.2573725879192352e-01 2.6566907763481140e-01</leafValues></_>
        <_>
          <internalNodes>
            0 -1 84 -1317 -616566609 -939598114 -609592050 -1090084
            1606243357 -88159489 -546570769</internalNodes>
          <leafValues>
            -1.2946206331253052e-01 4.6285012364387512e-01</leafValues></_>
        <_>
          <internalNodes>
            0 -1 278 1979709187 -337053974 -201915373 -220218254
            -493955497 -1949845548 1191179637 -738197519</internalNodes>
          <leafValues>
            -2.2648923099040985e-01 2.6828283071517944e-01</leafValues></_>
        <_>
          <internalNodes>
            0 -1 257 791081778 -1349983456 928993874 -551725376
            -1400130309 95394785 1172010901 460313060</internalNodes>
          <leafValues>
            -3.4155240654945374e-01 1.7196373641490936e-01</leafValues></_>
        <_>
          <internalNodes>
            0 -1 274 -814998216 280698163 -560109698 1501257587
            -1175432728 1601575611 -6481425 2048589296</internalNodes>
          <leafValues>
            -3.0946627259254456e-01 1.8913286924362183e-01</leafValues></_>
        <_>
          <internalNodes>
            0 -1 97 -168511580 1356118005 -1076545940 1607446382
            -143933490 1952316054 -1195783798 979335438</internalNodes>
          <leafValues>
            -2.8269329667091370e-01 2.0774227380752563e-01</leafValues></_>
        <_>
          <internalNodes>
            0 -1 588 -1080360977 -537202512 245563367 -44699947
            -1414873348 -60547088 926092173 -813741571</internalNodes>
          <leafValues>
            -2.0892693102359772e-01 2.8866633772850037e-01</leafValues></_>
        <_>
          <internalNodes>
            0 -1 328 1105050303 354107322 2142321498 -76997726
            -671429714 -448839777 450733178 -68289665</internalNodes>
          <leafValues>
            -1.7672212421894073e-01 3.3945190906524658e-01</leafValues></_>
        <_>
          <internalNodes>
            0 -1 475 -350224561 2138787403 1652292314 1381760734
            -321012728 -12085754 1785318120 1108803454</internalNodes>
          <leafValues>
            -2.8953450918197632e-01 2.1452543139457703e-01</leafValues></_>
        <_>
          <internalNodes>
            0 -1 506 -1269438737 -1391528993 -2137298262 1943006670
            -75517426 1817172759 -1554014046 -1477657667</internalNodes>
          <leafValues>
            -2.4954210221767426e-01 2.4371388554573059e-01</leafValues></_>
        <_>
          <internalNodes>
            0 -1 152 -1411772170 -1710079746 432202378 321521914
            781586616 437283672 131751256 1594903576</internalNodes>
          <leafValues>
            -4.4585007429122925e-01 1.3870142400264740e-01</leafValues></_>
        <_>
          <internalNodes>
            0 -1 414 1993935893 -6482083 -765660417 -1199713537
            -823763812 -553696419 36494331 -1158136893</internalNodes>
          <leafValues>
            -2.4058903753757477e-01 2.4344903230667114e-01</leafValues></_></weakClassifiers></_>
    <!-- stage 11 -->
    <_>
      <maxWeakCount>37</maxWeakCount>
      <stageThreshold>-1.6628192663192749e+00</stageThreshold>
      <weakClassifiers>
        <_>
          <internalNodes>
            0 -1 364 -548602884 1561640892 -77669634 -2191 -132099
            -170065921 -83887362 -148818</internalNodes>
          <leafValues>
            2.9616611078381538e-02 7.1261495351791382e-01</leafValues></_>
        <_>
          <internalNodes>
            0 -1 579 -3077 -1080307714 -673196808 -6563848 -12846405
            990034938 1595659768 -12853765</internalNodes>
          <leafValues>
            -1.7215122282505035e-01 6.3022100925445557e-01</leafValues></_>
        <_>
          <internalNodes>
            0 -1 81 -1006635009 -872415233 1192427418 -551880774
            -537960710 1520327423 -536940805 -547357733</internalNodes>
          <leafValues>
            -2.1753028035163879e-01 5.0552904605865479e-01</leafValues></_>
        <_>
          <internalNodes>
            0 -1 212 844115616 -942593 -749692430 -135241511 -1414418513
            -1376449780 -1143865345 1431641415</internalNodes>
          <leafValues>
            -3.9830005168914795e-01 2.8233769536018372e-01</leafValues></_>
        <_>
          <internalNodes>
            0 -1 594 -5125 -269485073 -263245 -5 -603981238 -808460337
            -8519693 -538968097</internalNodes>
          <leafValues>
            -2.4876487255096436e-01 4.2806965112686157e-01</leafValues></_>
        <_>
          <internalNodes>
            0 -1 271 -33786087 -5570760 -23102705 -1073758554 -67436865
            -1350893825 -132170226 -1153436041</internalNodes>
          <leafValues>
            -2.6119843125343323e-01 3.3379447460174561e-01</leafValues></_>
        <_>
          <internalNodes>
            0 -1 146 -253271325 -405888342 -1843973582 1358821281
            796080059 -942747710 2012180723 1476395006</internalNodes>
          <leafValues>
            -3.4198683500289917e-01 2.3401884734630585e-01</leafValues></_>
        <_>
          <internalNodes>
            0 -1 517 844759240 -1814166950 -102762033 -338562 -232197958
            -84223777 -503251032 -147131015</internalNodes>
          <leafValues>
            -3.4814316034317017e-01 2.1671865880489349e-01</leafValues></_>
        <_>
          <internalNodes>
            0 -1 342 286277117 1979553277 1474247663 2147424735
            533921279 -33752132 1072283631 -1073798422</internalNodes>
          <leafValues>
            -1.6587473452091217e-01 4.3733125925064087e-01</leafValues></_>
        <_>
          <internalNodes>
            0 -1 518 -3337 -573063177 1383723771 1927282687 -734004728
            2136996959 1652028151 -622854145</internalNodes>
          <leafValues>
            -2.2623519599437714e-01 3.1771290302276611e-01</leafValues></_>
        <_>
          <internalNodes>
            0 -1 223 -1415004384 -777191280 127793652 1362189621
            -1346326098 -105838286 210442667 1477052850</internalNodes>
          <leafValues>
            -4.4392886757850647e-01 1.5480114519596100e-01</leafValues></_>
        <_>
          <internalNodes>
            0 -1 76 272562670 1388096942 862978106 863187775 921664996
            885019460 -134748997 1404022764</internalNodes>
          <leafValues>
            -4.4361805915832520e-01 1.4448307454586029e-01</leafValues></_>
        <_>
          <internalNodes>
            0 -1 491 824229689 -1381960480 323309474 -545475676
            520747963 -1952337011 831239671 529466853</internalNodes>
          <leafValues>
            -3.0847254395484924e-01 2.0612858235836029e-01</leafValues></_>
        <_>
          <internalNodes>
            0 -1 459 -1703612928 328400870 -48234582 -1757581602
            -279189496 -816739832 -698363661 -1621627146</internalNodes>
          <leafValues>
            -3.0947935581207275e-01 2.0281718671321869e-01</leafValues></_>
        <_>
          <internalNodes>
            0 -1 516 -34078793 -211830857 851055764 809297390 -847262964
            -21369001 -825255370 -572588238</internalNodes>
          <leafValues>
            -2.3461474478244781e-01 2.6723006367683411e-01</leafValues></_>
        <_>
          <internalNodes>
            0 -1 531 -828375101 -1389831286 1641931440 -145772054
            -34609334 -1961894641 -709888773 -973078593</internalNodes>
          <leafValues>
            -1.7447848618030548e-01 3.5588246583938599e-01</leafValues></_>
        <_>
          <internalNodes>
            0 -1 125 -258 1534464734 -1709114662 521338495 -587246380
            1609830404 -555877793 -27533601</internalNodes>
          <leafValues>
            -2.1218292415142059e-01 2.9559683799743652e-01</leafValues></_>
        <_>
          <internalNodes>
            0 -1 210 -1648700943 -38844023 -1814587393 -1075851027
            798407131 1872223023 1064298471 264230381</internalNodes>
          <leafValues>
            -2.4592240154743195e-01 2.4766272306442261e-01</leafValues></_>
        <_>
          <internalNodes>
            0 -1 111 -1956190337 -197802753 -1089562305 -552549182
            -927693926 -1744994575 -97910849 -232963605</internalNodes>
          <leafValues>
            -2.1093882620334625e-01 2.9200688004493713e-01</leafValues></_>
        <_>
          <internalNodes>
            0 -1 324 -1814694916 -1781459027 1058085832 520095240
            366222778 938842525 403552910 422909809</internalNodes>
          <leafValues>
            -3.8977310061454773e-01 1.5028071403503418e-01</leafValues></_>
        <_>
          <internalNodes>
            0 -1 1 -488636810 781964991 -683671934 -43008569 -143692217
            -6553613 -37229243 -411828377</internalNodes>
          <leafValues>
            -2.3343379795551300e-01 2.5732359290122986e-01</leafValues></_>
        <_>
          <internalNodes>
            0 -1 495 754407511 -33601953 2051273851 843924219
            -1636809524 -308661936 -131292211 976764798</internalNodes>
          <leafValues>
            -2.9405221343040466e-01 1.9221201539039612e-01</leafValues></_>
        <_>
          <internalNodes>
            0 -1 191 -2034363088 -541392718 170319320 1571314794
            731531700 1534722212 268099016 1594252512</internalNodes>
          <leafValues>
            -4.0410599112510681e-01 1.3907627761363983e-01</leafValues></_>
        <_>
          <internalNodes>
            0 -1 554 -35659781 -1148502088 -38825739 -113383565
            -570950216 -1693870176 1145126361 -805314065</internalNodes>
          <leafValues>
            -1.7421279847621918e-01 3.4192728996276855e-01</leafValues></_>
        <_>
          <internalNodes>
            0 -1 158 1787863562 824156943 -1829500884 806365925
            -572555262 1599033206 -16789005 2002062596</internalNodes>
          <leafValues>
            -3.8552445173263550e-01 1.4859926700592041e-01</leafValues></_>
        <_>
          <internalNodes>
            0 -1 258 -1339903687 -206106607 327140295 1475693693
            -1438917653 -71417365 247438333 -536946552</internalNodes>
          <leafValues>
            -2.5632077455520630e-01 2.2158075869083405e-01</leafValues></_>
        <_>
          <internalNodes>
            0 -1 398 -159386542 408312832 -1209582978 1010703896
            10420766 -1212197182 409123407 500525649</internalNodes>
          <leafValues>
            -3.5865592956542969e-01 1.6729703545570374e-01</leafValues></_>
        <_>
          <internalNodes>
            0 -1 127 -993355785 -675913742 -7409185 -845930817
            -805420816 -1749590954 -68378627 -1081140481</internalNodes>
          <leafValues>
            -1.6532014310359955e-01 3.4602075815200806e-01</leafValues></_>
        <_>
          <internalNodes>
            0 -1 10 -71373273 -791384342 -345047283 -1112584626
            -36243489 -220925763 1865280621 -1778322338</internalNodes>
          <leafValues>
            -2.0212255418300629e-01 2.6821473240852356e-01</leafValues></_>
        <_>
          <internalNodes>
            0 -1 360 -1646487127 1815977471 1234442504 1520473006
            -78181270 2004317055 -1681179894 -221846556</internalNodes>
          <leafValues>
            -2.5425034761428833e-01 2.2088977694511414e-01</leafValues></_>
        <_>
          <internalNodes>
            0 -1 243 -1973937924 1849629629 2070944432 -1909451018
            -1996619598 376906533 534372253 1534958103</internalNodes>
          <leafValues>
            -3.4871420264244080e-01 1.5723030269145966e-01</leafValues></_>
        <_>
          <internalNodes>
            0 -1 57 -135283990 -806450614 1358893234 2008020210
            239545503 1313785007 1163882739 1197462267</internalNodes>
          <leafValues>
            -2.4967908859252930e-01 2.1151115000247955e-01</leafValues></_>
        <_>
          <internalNodes>
            0 -1 313 262733746 -349519552 -682667295 -206188336
            -2016939076 -880108545 383742935 1560237284</internalNodes>
          <leafValues>
            -3.0515256524085999e-01 1.7486813664436340e-01</leafValues></_>
        <_>
          <internalNodes>
            0 -1 429 -73757 -2142479 628594663 2061369295 -10486004
            2114965768 -161241438 -228068741</internalNodes>
          <leafValues>
            -1.9126528501510620e-01 2.9186481237411499e-01</leafValues></_>
        <_>
          <internalNodes>
            0 -1 513 -79736509 1608801095 -84498961 793729919 -629796616
            -118255365 -1340806932 -96406658</internalNodes>
          <leafValues>
            -2.1016259491443634e-01 2.5877025723457336e-01</leafValues></_>
        <_>
          <internalNodes>
            0 -1 416 488638464 -1108403873 -1621272369 490410309
            -78862145 -70742998 -1557091338 839399012</internalNodes>
          <leafValues>
            -4.5124205946922302e-01 1.1699839681386948e-01</leafValues></_>
        <_>
          <internalNodes>
            0 -1 262 -80044039 1022854126 52666119 1181946307 -738681109
            -1174720357 -1984049269 -1178976806</internalNodes>
          <leafValues>
            -1.9125509262084961e-01 2.7738648653030396e-01</leafValues></_></weakClassifiers></_>
    <!-- stage 12 -->
    <_>
      <maxWeakCount>39</maxWeakCount>
      <stageThreshold>-1.6513427495956421e+00</stageThreshold>
      <weakClassifiers>
        <_>
          <internalNodes>
            0 -1 121 -67110149 1507410078 486178558 487250110
            -1073853220 1557924864 266010110 1606082046</internalNodes>
          <leafValues>
            7.9097360372543335e-02 7.2602832317352295e-01</leafValues></_>
        <_>
          <internalNodes>
            0 -1 563 -8397829 -5538640 1901591536 2134604280 -135533829
            -1633955521 1394333177 -8651781</internalNodes>
          <leafValues>
            -1.5100435912609100e-01 6.2202990055084229e-01</leafValues></_>
        <_>
          <internalNodes>
            0 -1 102 -201334034 -136317442 852751088 1404304383
            -1076364306 668689996 2011687866 1599078347</internalNodes>
          <leafValues>
            -4.4644370675086975e-01 2.8301903605461121e-01</leafValues></_>
        <_>
          <internalNodes>
            0 -1 339 1431343613 1608341503 1608332286 2144285692
            864157433 -2302532 2142879743 1006239880</internalNodes>
          <leafValues>
            -3.1988477706909180e-01 3.2213538885116577e-01</leafValues></_>
        <_>
          <internalNodes>
            0 -1 603 -17 -168306817 -355474706 1627389895 -11534586
            -261362093 -67108882 -185597969</internalNodes>
          <leafValues>
            -1.9808287918567657e-01 4.9128481745719910e-01</leafValues></_>
        <_>
          <internalNodes>
            0 -1 500 -1744837901 601764447 1927279602 844362713
            -21767672 -279135704 49586930 -16777221</internalNodes>
          <leafValues>
            -3.3889833092689514e-01 2.3707681894302368e-01</leafValues></_>
        <_>
          <internalNodes>
            0 -1 14 -150997001 -34178314 1606397935 -2117918 1556479999
            -36641283 2147433983 -1224705</internalNodes>
          <leafValues>
            -1.9717752933502197e-01 3.9997062087059021e-01</leafValues></_>
        <_>
          <internalNodes>
            0 -1 231 845312349 1912591717 453056922 252022018 1187944095
            467338175 2114977755 1543963615</internalNodes>
          <leafValues>
            -3.6146390438079834e-01 2.0476521551609039e-01</leafValues></_>
        <_>
          <internalNodes>
            0 -1 462 -420544605 116379087 -539271885 -21053505
            -840238323 1277860253 -1965137214 -925893665</internalNodes>
          <leafValues>
            -2.7527114748954773e-01 2.4197629094123840e-01</leafValues></_>
        <_>
          <internalNodes>
            0 -1 331 -237716484 -737039447 2135632498 1610595762
            -1747154177 -466284673 1066909406 580727351</internalNodes>
          <leafValues>
            -3.0834639072418213e-01 2.1473187208175659e-01</leafValues></_>
        <_>
          <internalNodes>
            0 -1 551 1060896767 -1146882120 -545273347 -134292483
            238777260 -1096117848 386518527 2147221242</internalNodes>
          <leafValues>
            -1.9130139052867889e-01 3.3091253042221069e-01</leafValues></_>
        <_>
          <internalNodes>
            0 -1 109 -521837061 -840005982 1541221906 1928673056
            1246722010 -1362309312 1912041715 -941656326</internalNodes>
          <leafValues>
            -3.0816161632537842e-01 2.1620567142963409e-01</leafValues></_>
        <_>
          <internalNodes>
            0 -1 557 -33599277 -705213201 -1625030661 -537428113
            -88418113 -335827201 -601296402 -12910657</internalNodes>
          <leafValues>
            -1.6651244461536407e-01 3.7167832255363464e-01</leafValues></_>
        <_>
          <internalNodes>
            0 -1 330 -1921231756 1985071485 -539219460 1060343679
            -250554943 1929659708 -5734723 239081899</internalNodes>
          <leafValues>
            -3.9924767613410950e-01 1.5478149056434631e-01</leafValues></_>
        <_>
          <internalNodes>
            0 -1 237 2079322915 -269553790 -237551280 -218386894
            -1082196002 -2011177271 1459254645 -606076937</internalNodes>
          <leafValues>
            -2.2673070430755615e-01 2.6509898900985718e-01</leafValues></_>
        <_>
          <internalNodes>
            0 -1 415 -90685216 -34085663 324363247 -671334298 588505763
            1525378518 589741351 130502076</internalNodes>
          <leafValues>
            -4.0369206666946411e-01 1.5373185276985168e-01</leafValues></_>
        <_>
          <internalNodes>
            0 -1 46 -546308097 -542450201 -1075054994 -542971153
            1602049516 -545972745 2102350286 -257</internalNodes>
          <leafValues>
            -1.2058974057435989e-01 5.1116245985031128e-01</leafValues></_>
        <_>
          <internalNodes>
            0 -1 41 -423366665 794558463 -820791364 671031295 1611824965
            2146952191 -325718100 -302707051</internalNodes>
          <leafValues>
            -2.4310949444770813e-01 2.3939275741577148e-01</leafValues></_>
        <_>
          <internalNodes>
            0 -1 457 -1166513848 993774056 -13460597 287956339 -13391189
            -42374936 1116059067 -551561930</internalNodes>
          <leafValues>
            -2.3554964363574982e-01 2.4346667528152466e-01</leafValues></_>
        <_>
          <internalNodes>
            0 -1 260 -2002191726 -72699600 522705295 1561710836
            -1375471662 -1889631855 257683660 1490846044</internalNodes>
          <leafValues>
            -3.4505021572113037e-01 1.6912283003330231e-01</leafValues></_>
        <_>
          <internalNodes>
            0 -1 123 -134220033 -168018758 1190195931 -78446601
            -965997500 1297875008 -1229652646 -11284901</internalNodes>
          <leafValues>
            -1.9370363652706146e-01 3.0255383253097534e-01</leafValues></_>
        <_>
          <internalNodes>
            0 -1 376 -215817196 1058333644 -1102398897 1090966039
            -6536609 -1161924162 -1456302023 -1156961740</internalNodes>
          <leafValues>
            -3.2351496815681458e-01 1.7075873911380768e-01</leafValues></_>
        <_>
          <internalNodes>
            0 -1 34 -1070597153 -850990546 233111026 -12002049
            1172175869 1606021374 1195168708 -6482241</internalNodes>
          <leafValues>
            -2.0621448755264282e-01 2.6527902483940125e-01</leafValues></_>
        <_>
          <internalNodes>
            0 -1 264 1789587373 -276158558 -772282262 1343714099
            1179288363 -1031233015 1666035654 -723517967</internalNodes>
          <leafValues>
            -2.4564908444881439e-01 2.3100529611110687e-01</leafValues></_>
        <_>
          <internalNodes>
            0 -1 404 -584077152 -911690840 1610603601 1551355415
            -975634021 1159289789 -1725986415 -1744702829</internalNodes>
          <leafValues>
            -2.9996553063392639e-01 1.8550327420234680e-01</leafValues></_>
        <_>
          <internalNodes>
            0 -1 575 -202178481 738154514 -258114943 856586006
            -393535351 235573760 1112228059 305724126</internalNodes>
          <leafValues>
            -2.7464246749877930e-01 2.0652659237384796e-01</leafValues></_>
        <_>
          <internalNodes>
            0 -1 299 20993284 -268601905 927993807 1775717390 1866768789
            -203440417 -3339905 -1362679258</internalNodes>
          <leafValues>
            -2.7388757467269897e-01 2.1283492445945740e-01</leafValues></_>
        <_>
          <internalNodes>
            0 -1 244 -91403766 -842019669 -354517966 -264544514
            -22656440 -1017686193 -563046690 -75825154</internalNodes>
          <leafValues>
            -2.3245581984519958e-01 2.5026056170463562e-01</leafValues></_>
        <_>
          <internalNodes>
            0 -1 303 335055492 1601722111 -2050453620 -2238678
            1893838757 2141044927 -591065315 1280584367</internalNodes>
          <leafValues>
            -2.7402099967002869e-01 1.9632703065872192e-01</leafValues></_>
        <_>
          <internalNodes>
            0 -1 337 -1460119076 1576951151 1798119356 402462109
            -82257732 -34507696 2131820524 1060244475</internalNodes>
          <leafValues>
            -3.0110341310501099e-01 1.7846049368381500e-01</leafValues></_>
        <_>
          <internalNodes>
            0 -1 483 988668654 -428132547 -531317690 818724446
            -426317044 -149485009 -294657295 -361432332</internalNodes>
          <leafValues>
            -2.7149543166160583e-01 2.0721319317817688e-01</leafValues></_>
        <_>
          <internalNodes>
            0 -1 523 -1564720472 364642418 1388731758 1063932415
            806369961 873528198 1577217928 389732697</internalNodes>
          <leafValues>
            -3.8932499289512634e-01 1.3972482085227966e-01</leafValues></_>
        <_>
          <internalNodes>
            0 -1 528 -521207945 -1416432338 1305955741 -469764673
            -38164556 983612136 1311070788 -1396967648</internalNodes>
          <leafValues>
            -2.6250541210174561e-01 2.1251453459262848e-01</leafValues></_>
        <_>
          <internalNodes>
            0 -1 143 264223008 501418234 18289048 1506006264 262322610
            -1155482742 243108027 1594876</internalNodes>
          <leafValues>
            -3.1952801346778870e-01 1.7375633120536804e-01</leafValues></_>
        <_>
          <internalNodes>
            0 -1 383 -920687399 -1058091500 1243041034 -393705568
            519987043 -788597786 -4752073 1635247991</internalNodes>
          <leafValues>
            -3.4938400983810425e-01 1.6275264322757721e-01</leafValues></_>
        <_>
          <internalNodes>
            0 -1 325 566554960 237769624 1574730840 -1366409596
            -436977765 135952695 674105348 419492245</internalNodes>
          <leafValues>
            -4.6406990289688110e-01 1.1025270819664001e-01</leafValues></_>
        <_>
          <internalNodes>
            0 -1 406 -297281468 2047950933 1308997676 2055252544
            349634572 533485245 -1975575992 270709266</internalNodes>
          <leafValues>
            -3.8413187861442566e-01 1.3711071014404297e-01</leafValues></_>
        <_>
          <internalNodes>
            0 -1 254 688062256 620817184 -237170575 -182062719 587726747
            -1887239013 334381525 219877456</internalNodes>
          <leafValues>
            -3.7605109810829163e-01 1.3582187891006470e-01</leafValues></_>
        <_>
          <internalNodes>
            0 -1 11 742018047 -1327795492 97508093 -22256286 1835280179
            -29948747 -195911683 -1145076745</internalNodes>
          <leafValues>
            -1.9651883840560913e-01 2.6054826378822327e-01</leafValues></_></weakClassifiers></_>
    <!-- stage 13 -->
    <_>
      <maxWeakCount>44</maxWeakCount>
      <stageThreshold>-1.6125185489654541e+00</stageThreshold>
      <weakClassifiers>
        <_>
          <internalNodes>
            0 -1 583 -2100502 -275786870 -789318926 1928330815 -1118326
            202173962 1374679203 1473242351</internalNodes>
          <leafValues>
            6.4257778227329254e-02 7.1100246906280518e-01</leafValues></_>
        <_>
          <internalNodes>
            0 -1 334 -815989764 -27267087 1998582234 -538970127
            -538968073 -167903747 -67110145 -33701889</internalNodes>
          <leafValues>
            -2.5522980093955994e-01 4.6817624568939209e-01</leafValues></_>
        <_>
          <internalNodes>
            0 -1 80 -67114241 -576993025 -683753542 486727643 -673243908
            1509498108 -3215366 -769</internalNodes>
          <leafValues>
            -1.9611009955406189e-01 5.4853892326354980e-01</leafValues></_>
        <_>
          <internalNodes>
            0 -1 130 -176292043 -33555011 2145378239 -2097153 -38535681
            -4458053 -33686081 -1397751873</internalNodes>
          <leafValues>
            -2.0359423756599426e-01 4.4023254513740540e-01</leafValues></_>
        <_>
          <internalNodes>
            0 -1 599 -3146054 -273679702 -118531408 -218105349
            -201331122 -872419445 -67114249 -5185</internalNodes>
          <leafValues>
            -2.3395241796970367e-01 3.6348161101341248e-01</leafValues></_>
        <_>
          <internalNodes>
            0 -1 187 -838958680 -70571222 -214795054 2132704243
            1290535336 -538605272 -536982306 -633274371</internalNodes>
          <leafValues>
            -3.6577644944190979e-01 2.1640802919864655e-01</leafValues></_>
        <_>
          <internalNodes>
            0 -1 540 980287496 -1244704697 -55578157 -2131861 -492113240
            -19989784 -533659653 -971318819</internalNodes>
          <leafValues>
            -3.5140174627304077e-01 1.9701065123081207e-01</leafValues></_>
        <_>
          <internalNodes>
            0 -1 203 -1970106823 2069483219 -1207894275 -227351329
            -424670132 -72547761 -1074987012 -1085141987</internalNodes>
          <leafValues>
            -2.6665225625038147e-01 2.4395833909511566e-01</leafValues></_>
        <_>
          <internalNodes>
            0 -1 420 -865080152 -1930121812 1798184074 -861340470
            1601532194 63300339 2137485095 286621047</internalNodes>
          <leafValues>
            -4.9974319338798523e-01 1.2002246081829071e-01</leafValues></_>
        <_>
          <internalNodes>
            0 -1 268 -1209043033 -441521246 1358949318 -193875664
            184263595 -1966176374 1131400774 -33685875</internalNodes>
          <leafValues>
            -2.3593725264072418e-01 2.4814681708812714e-01</leafValues></_>
        <_>
          <internalNodes>
            0 -1 596 1610079743 521926586 -306898512 -1078940710
            -168175363 473047463 2146650300 2147483614</internalNodes>
          <leafValues>
            -1.7314429581165314e-01 3.5200229287147522e-01</leafValues></_>
        <_>
          <internalNodes>
            0 -1 54 -1024525389 -1459412270 392683518 1829175794
            1078490240 -1360321578 1078845428 1145533175</internalNodes>
          <leafValues>
            -3.8260602951049805e-01 1.5238131582736969e-01</leafValues></_>
        <_>
          <internalNodes>
            0 -1 385 1561129180 -1985377350 -304096527 -1087374481
            -310474583 -811101527 -587368771 -936643926</internalNodes>
          <leafValues>
            -2.7197664976119995e-01 2.1144911646842957e-01</leafValues></_>
        <_>
          <internalNodes>
            0 -1 450 -553909816 -604036884 382719180 1475153396
            -500593998 -2112294 -955196101 152126716</internalNodes>
          <leafValues>
            -3.8194254040718079e-01 1.5168945491313934e-01</leafValues></_>
        <_>
          <internalNodes>
            0 -1 309 -1725893711 -142295648 -573050381 -547106636
            251395307 -1895849555 -1008802825 -1611725667</internalNodes>
          <leafValues>
            -1.9084905087947845e-01 2.9049405455589294e-01</leafValues></_>
        <_>
          <internalNodes>
            0 -1 145 2145908647 -808997273 -581575083 1356827927
            -2044978 -87252602 1935533918 -11536545</internalNodes>
          <leafValues>
            -1.8365906178951263e-01 3.1822490692138672e-01</leafValues></_>
        <_>
          <internalNodes>
            0 -1 343 3212580 1374951588 1900899215 2109702095 1907489647
            -237165663 -1369526514 566584846</internalNodes>
          <leafValues>
            -3.1758266687393188e-01 1.8047028779983521e-01</leafValues></_>
        <_>
          <internalNodes>
            0 -1 370 1346846967 1451099101 -9545986 -6127653 1549802828
            2130673599 -861582980 -14534886</internalNodes>
          <leafValues>
            -2.3693048954010010e-01 2.4115599691867828e-01</leafValues></_>
        <_>
          <internalNodes>
            0 -1 490 -738197712 -1163222854 -1386275372 -1612751915
            -36123719 672370600 496852349 -1626350837</internalNodes>
          <leafValues>
            -2.1440151333808899e-01 2.5169700384140015e-01</leafValues></_>
        <_>
          <internalNodes>
            0 -1 474 -76398144 -53784101 1407022271 1543132147
            1765458347 -2954293 1111411179 1194510191</internalNodes>
          <leafValues>
            -2.7785781025886536e-01 1.8599936366081238e-01</leafValues></_>
        <_>
          <internalNodes>
            0 -1 281 863646201 -208110705 864238938 522009511
            -1555120227 -2092530977 1249524447 -657293451</internalNodes>
          <leafValues>
            -2.0778785645961761e-01 2.5472763180732727e-01</leafValues></_>
        <_>
          <internalNodes>
            0 -1 112 -1073165 -1416697970 -247992302 -202382334
            243252894 -1890609653 1442670227 1609556991</internalNodes>
          <leafValues>
            -2.0861278474330902e-01 2.6405060291290283e-01</leafValues></_>
        <_>
          <internalNodes>
            0 -1 122 1256382524 286855805 -625959170 405154991 188710916
            195010357 -822609417 -615002517</internalNodes>
          <leafValues>
            -3.0019816756248474e-01 1.7203707993030548e-01</leafValues></_>
        <_>
          <internalNodes>
            0 -1 183 722461611 -72380384 905949463 -211824300 1702494207
            -1900132350 1473729967 -685059019</internalNodes>
          <leafValues>
            -2.0265799760818481e-01 2.6035216450691223e-01</leafValues></_>
        <_>
          <internalNodes>
            0 -1 538 -562052397 -44090339 318215151 861919999 -486544758
            -78517410 1895295726 -94372868</internalNodes>
          <leafValues>
            -1.3773177564144135e-01 3.7420374155044556e-01</leafValues></_>
        <_>
          <internalNodes>
            0 -1 353 -580092903 -1626407540 1978465471 -1131872809
            1476344955 -1344127294 3863856 -421594117</internalNodes>
          <leafValues>
            -2.2329495847225189e-01 2.4270208179950714e-01</leafValues></_>
        <_>
          <internalNodes>
            0 -1 157 -285973 -503388561 1920547388 1930557179 1321961608
            -821803381 -669858305 -682275249</internalNodes>
          <leafValues>
            -1.7573674023151398e-01 2.9947096109390259e-01</leafValues></_>
        <_>
          <internalNodes>
            0 -1 12 -26216785 1356852398 1628232238 -1796359281
            -85594673 -159924749 -9679330 -51102162</internalNodes>
          <leafValues>
            -1.8277925252914429e-01 2.8604391217231750e-01</leafValues></_>
        <_>
          <internalNodes>
            0 -1 148 -758468108 -153094160 1931747936 -1325436304
            579138038 71614356 -771190546 285495476</internalNodes>
          <leafValues>
            -5.0983154773712158e-01 1.0623034834861755e-01</leafValues></_>
        <_>
          <internalNodes>
            0 -1 519 -97559466 2016875611 1610821887 1920427495
            -21001140 -823720417 -1194546442 -93668646</internalNodes>
          <leafValues>
            -2.4758495390415192e-01 2.0767933130264282e-01</leafValues></_>
        <_>
          <internalNodes>
            0 -1 589 -171989245 -1324961094 358337841 -171186511
            -397499926 -181491814 544844740 -1595412666</internalNodes>
          <leafValues>
            -1.9400700926780701e-01 2.7710002660751343e-01</leafValues></_>
        <_>
          <internalNodes>
            0 -1 527 -1145959944 891444456 -2016515960 529750412
            -1422373638 2102649544 925033406 203015420</internalNodes>
          <leafValues>
            -3.2591724395751953e-01 1.5841589868068695e-01</leafValues></_>
        <_>
          <internalNodes>
            0 -1 569 737588155 -1280660598 -1714454575 -204378636
            -386826247 -1130251848 -1860878467 1570198835</internalNodes>
          <leafValues>
            -2.2588315606117249e-01 2.2839581966400146e-01</leafValues></_>
        <_>
          <internalNodes>
            0 -1 463 1243328128 -376918678 58636642 -1086780647
            -979125459 -988991320 551006455 1830612091</internalNodes>
          <leafValues>
            -2.7802315354347229e-01 1.8308602273464203e-01</leafValues></_>
        <_>
          <internalNodes>
            0 -1 75 1656094480 256823082 668271984 1928530432 99887822
            1297902387 1120282097 2002472127</internalNodes>
          <leafValues>
            -3.7452393770217896e-01 1.3756185770034790e-01</leafValues></_>
        <_>
          <internalNodes>
            0 -1 367 377228532 2113567839 -694362004 461332299
            -1567614388 -37109685 -923731331 989487051</internalNodes>
          <leafValues>
            -2.6255178451538086e-01 1.9756957888603210e-01</leafValues></_>
        <_>
          <internalNodes>
            0 -1 351 -1173555452 -133853436 -1967816705 -126364837
            -90450043 -1634499148 216816868 -1650022331</internalNodes>
          <leafValues>
            -3.0334270000457764e-01 1.7335787415504456e-01</leafValues></_>
        <_>
          <internalNodes>
            0 -1 396 -1001124500 1490560509 -811852466 -1086554341
            2029594333 1060654485 -1224721907 -1086832846</internalNodes>
          <leafValues>
            -2.6440373063087463e-01 1.9224563241004944e-01</leafValues></_>
        <_>
          <internalNodes>
            0 -1 9 1302523440 146794102 -1148428750 250391259 -76480671
            -408427801 -586749147 553108063</internalNodes>
          <leafValues>
            -3.6351388692855835e-01 1.3499873876571655e-01</leafValues></_>
        <_>
          <internalNodes>
            0 -1 92 -201345418 -547957025 -1979039812 1532157178
            -1954611116 -581696418 -254480652 374544222</internalNodes>
          <leafValues>
            -2.7079090476036072e-01 1.8992291390895844e-01</leafValues></_>
        <_>
          <internalNodes>
            0 -1 267 -1400199392 -1858420206 831747309 298139700
            454172603 447389963 789534106 1434606948</internalNodes>
          <leafValues>
            -3.8591435551643372e-01 1.2918049097061157e-01</leafValues></_>
        <_>
          <internalNodes>
            0 -1 40 1361029602 -764534795 1826425646 802138092
            -1829006256 337915538 2110766764 1229243338</internalNodes>
          <leafValues>
            -3.0636563897132874e-01 1.5829294919967651e-01</leafValues></_>
        <_>
          <internalNodes>
            0 -1 153 -1690586438 -742453121 469122910 1897584254
            -1920316168 422861948 783047918 -75869941</internalNodes>
          <leafValues>
            -2.0842102169990540e-01 2.3088619112968445e-01</leafValues></_>
        <_>
          <internalNodes>
            0 -1 354 797994261 -274679904 -684592338 -12191088
            -1955730963 158706317 1362064629 278692804</internalNodes>
          <leafValues>
            -3.1768450140953064e-01 1.5040849149227142e-01</leafValues></_></weakClassifiers></_>
    <!-- stage 14 -->
    <_>
      <maxWeakCount>44</maxWeakCount>
      <stageThreshold>-1.5643253326416016e+00</stageThreshold>
      <weakClassifiers>
        <_>
          <internalNodes>
            0 -1 592 -4501254 -1615160390 -67646224 -263560 454217978
            184609976 1595104728 1595596217</internalNodes>
          <leafValues>
            2.1788990125060081e-02 6.8675863742828369e-01</leafValues></_>
        <_>
          <internalNodes>
            0 -1 277 -237653254 -178406658 -2286723 -50177 -105600774
            -268437258 -1277297681 -2098209</internalNodes>
          <leafValues>
            -2.1144497394561768e-01 5.3149336576461792e-01</leafValues></_>
        <_>
          <internalNodes>
            0 -1 107 -1014504533 -671256544 -641861857 1438602743
            -353370129 -69415698 -876609537 -671091721</internalNodes>
          <leafValues>
            -1.7796695232391357e-01 5.3889179229736328e-01</leafValues></_>
        <_>
          <internalNodes>
            0 -1 249 -38038255 900796851 2012864509 -2228977 -1111769155
            -1077938497 -809919044 -1079001093</internalNodes>
          <leafValues>
            -1.6737347841262817e-01 4.9093997478485107e-01</leafValues></_>
        <_>
          <internalNodes>
            0 -1 418 -540999721 -2236963 -268959746 1394080671
            -1360388606 -19087487 1610667794 -832569345</internalNodes>
          <leafValues>
