<?xml version="1.0"?>
<opencv_storage>
<stage7>
  <maxWeakCount>26</maxWeakCount>
  <stageThreshold>-1.7646970748901367e+00</stageThreshold>
  <weakClassifiers>
    <_>
      <internalNodes>
        0 -1 10539 -1510414 -69403652 -2350350 -1073995038 1603073982
        -540082180 -3206657 1540161967</internalNodes>
      <leafValues>
        -1.7704860866069794e-01 7.0271331071853638e-01</leafValues></_>
    <_>
      <internalNodes>
        0 -1 25179 -4194317 -5245021 -241175823 -203424773 -1079251121
        -1894858965 1374680565 -536873729</internalNodes>
      <leafValues>
        -2.2319725155830383e-01 6.4115577936172485e-01</leafValues></_>
    <_>
      <internalNodes>
        0 -1 12278 -34081003 -1107427395 -1078207201 -1077936193 -262721
        -1145328193 -1649418689 212860703</internalNodes>
      <leafValues>
        -3.2314053177833557e-01 4.6234014630317688e-01</leafValues></_>
    <_>
      <internalNodes>
        0 -1 14367 -107265 -107298 -583114763 1601789015 -319140676
        -269607716 -21307429 -4521989</internalNodes>
      <leafValues>
        -2.6032936573028564e-01 4.9616515636444092e-01</leafValues></_>
    <_>
      <internalNodes>
        0 -1 12757 -236457221 -810636638 1400857267 1916744497
        -810614789 -829493366 1474262007 -3147777</internalNodes>
      <leafValues>
        -3.0670043826103210e-01 4.1456058621406555e-01</leafValues></_>
    <_>
      <internalNodes>
        0 -1 21082 -70451252 -221809 -565453066 1531313141 -1374954238
        -1949961437 587920691 -1425014785</internalNodes>
      <leafValues>
        -3.9686912298202515e-01 2.7563360333442688e-01</leafValues></_>
    <_>
      <internalNodes>
        0 -1 26549 -67110329 -241696969 -138938645 -203950225 -353370417
        -5243061 -386925873 -520094081</internalNodes>
      <leafValues>
        -1.7245601117610931e-01 6.3839101791381836e-01</leafValues></_>
    <_>
      <internalNodes>
        0 -1 11698 -6623462 -545347904 -366805318 993197807 -540254096
        526074384 1148212479 1534548999</internalNodes>
      <leafValues>
        -4.2100194096565247e-01 2.5407946109771729e-01</leafValues></_>
    <_>
      <internalNodes>
        0 -1 23295 -67118505 -1149429155 -218180866 844673759 -822113784
        -347092384 -1563647050 -1418003457</internalNodes>
      <leafValues>
        -3.1227129697799683e-01 3.1085976958274841e-01</leafValues></_>
    <_>
      <internalNodes>
        0 -1 16452 1911575513 1599583448 420559448 521085697 1070773919
        249235851 436870894 1522827077</internalNodes>
      <leafValues>
        -3.6857730150222778e-01 2.5246509909629822e-01</leafValues></_>
    <_>
      <internalNodes>
        0 -1 25218 -1087768591 -1081540688 -235151375 -2232331
        -1097859079 -1413966339 -544490243 -35335</internalNodes>
      <leafValues>
        -1.9356398284435272e-01 4.7354748845100403e-01</leafValues></_>
    <_>
      <internalNodes>
        0 -1 1806 -990908430 1333767043 1622112626 -1342223178
        1078958067 -563124233 1153946852 1164403924</internalNodes>
      <leafValues>
        -4.1200610995292664e-01 2.2866104543209076e-01</leafValues></_>
    <_>
      <internalNodes>
        0 -1 21775 1623999573 -2140417 -83951906 1928756447 -1346876340
        -8838953 -84612401 -1146607618</internalNodes>
      <leafValues>
        -2.9073673486709595e-01 3.0633890628814697e-01</leafValues></_>
    <_>
      <internalNodes>
        0 -1 21181 1563549176 -1440682328 1460796925 -4328963
        -1962963720 -806368348 -574239267 218322161</internalNodes>
      <leafValues>
        -3.9998596906661987e-01 2.1136710047721863e-01</leafValues></_>
    <_>
      <internalNodes>
        0 -1 15241 -1083933 -1014061278 1457256082 -768134368 -85465362
        -829631894 2007971668 -570426380</internalNodes>
      <leafValues>
        -2.8631538152694702e-01 3.0238765478134155e-01</leafValues></_>
    <_>
      <internalNodes>
        0 -1 24459 -780156397 -245899489 1390404351 945814527 -86095718
        -578857149 1928000186 -93652402</internalNodes>
      <leafValues>
        -2.3097632825374603e-01 3.6845609545707703e-01</leafValues></_>
    <_>
      <internalNodes>
        0 -1 17222 -1732595024 -40266571 1604321267 -539534243
        -1363478021 -557853699 737852155 -1678009955</internalNodes>
      <leafValues>
        -3.1812658905982971e-01 2.6905688643455505e-01</leafValues></_>
    <_>
      <internalNodes>
        0 -1 23345 -1292091172 -671414825 1866948590 2133804255
        -496310045 -169487275 589545391 524024185</internalNodes>
      <leafValues>
        -3.5471975803375244e-01 2.3911605775356293e-01</leafValues></_>
    <_>
      <internalNodes>
        0 -1 16756 571749316 1971102448 823408768 584033006 386671085
        1973743277 1057306606 999889418</internalNodes>
      <leafValues>
        -4.4114983081817627e-01 1.9956544041633606e-01</leafValues></_>
    <_>
      <internalNodes>
        0 -1 23471 -68161617 782143295 1599334274 -1733100148 -11575985
        800980655 -370247614 -925892901</internalNodes>
      <leafValues>
        -3.0780375003814697e-01 2.6957130432128906e-01</leafValues></_>
    <_>
      <internalNodes>
        0 -1 15493 -623914262 -335666937 1660450818 -95249602 -486670268
        -900134902 -226995532 -208470049</internalNodes>
      <leafValues>
        -2.7825227379798889e-01 2.9125446081161499e-01</leafValues></_>
    <_>
      <internalNodes>
        0 -1 15140 -1111559760 2077446589 -1617697864 1609647465
        -1717847056 2144529405 -1077964289 430575069</internalNodes>
      <leafValues>
        -4.0002381801605225e-01 2.0454761385917664e-01</leafValues></_>
    <_>
      <internalNodes>
        0 -1 3667 -676139282 -541892835 97657343 242651103 382231512
        1900120768 -1640256531 1984384836</internalNodes>
      <leafValues>
        -4.0109547972679138e-01 2.1779839694499969e-01</leafValues></_>
    <_>
      <internalNodes>
        0 -1 12593 1646455804 -1358995881 -550265209 1185370451
        1113885948 -1526802948 -556926225 1672463666</internalNodes>
      <leafValues>
        -3.6867073178291321e-01 2.1257361769676208e-01</leafValues></_>
    <_>
      <internalNodes>
        0 -1 17358 -1425476655 -376900382 1935102035 -178146704
        -1695947869 -1882679365 131724177 215602676</internalNodes>
      <leafValues>
        -3.5312935709953308e-01 2.2754037380218506e-01</leafValues></_>
    <_>
      <internalNodes>
        0 -1 16784 1678004308 2115590517 -1091903697 764943644 -21171772
        -1141148682 -540132417 -1430639285</internalNodes>
      <leafValues>
        -3.0498147010803223e-01 2.5843596458435059e-01</leafValues></_></weakClassifiers></stage7>
</opencv_storage>
