<?xml version="1.0"?>
<opencv_storage>
<stage18>
  <maxWeakCount>51</maxWeakCount>
  <stageThreshold>-1.5151594877243042e+00</stageThreshold>
  <weakClassifiers>
    <_>
      <internalNodes>
        0 -1 16563 -816260168 -663563 1337854696 -8653839 -407188824
        -134907403 -1080295491 -1</internalNodes>
      <leafValues>
        1.4019715785980225e-01 7.1120387315750122e-01</leafValues></_>
    <_>
      <internalNodes>
        0 -1 25490 -209993137 -35652797 -1279397985 -10511529
        -1306264838 -119608712 859044831 -209716385</internalNodes>
      <leafValues>
        -1.3040664792060852e-01 5.7479816675186157e-01</leafValues></_>
    <_>
      <internalNodes>
        0 -1 25679 -201330189 -877675126 -189279791 -234883653 -7606374
        -812913528 -771755565 -673187877</internalNodes>
      <leafValues>
        -2.0977619290351868e-01 4.3141049146652222e-01</leafValues></_>
    <_>
      <internalNodes>
        0 -1 17136 -237456728 -138561351 -1873798416 -2754099
        -1683112019 -1079961171 -68814081 -1811861905</internalNodes>
      <leafValues>
        -2.9037058353424072e-01 2.6814764738082886e-01</leafValues></_>
    <_>
      <internalNodes>
        0 -1 15098 -1078870604 -644639599 -13109255 1574918490 -4932417
        -72181701 1600106431 -593821702</internalNodes>
      <leafValues>
        -2.4693228304386139e-01 3.0947521328926086e-01</leafValues></_>
    <_>
      <internalNodes>
        0 -1 21076 -67321112 -673717772 1440087950 1407001446
        -1573805382 -1467252530 556923394 789855252</internalNodes>
      <leafValues>
        -4.7606888413429260e-01 1.4827121794223785e-01</leafValues></_>
    <_>
      <internalNodes>
        0 -1 13158 -268470785 -336641878 -793182733 1597723995
        -1411495700 -1883370356 -862399235 -608534621</internalNodes>
      <leafValues>
        -2.3129586875438690e-01 2.9340371489524841e-01</leafValues></_>
    <_>
      <internalNodes>
        0 -1 11272 -1026621453 -373417029 -2055209135 292761937
        -1668659061 -1264640063 1195433459 -11341</internalNodes>
      <leafValues>
        -2.6062756776809692e-01 2.3453336954116821e-01</leafValues></_>
    <_>
      <internalNodes>
        0 -1 11599 -940679342 1576532675 61536682 532217226 1240245256
        1230904372 -1035681638 527850680</internalNodes>
      <leafValues>
        -3.4315961599349976e-01 1.6141487658023834e-01</leafValues></_>
    <_>
      <internalNodes>
        0 -1 19284 -34619910 -842011952 -13130626 -602717438 -961974742
        -1937607006 -1679381321 -404525458</internalNodes>
      <leafValues>
        -2.1822260320186615e-01 2.5346666574478149e-01</leafValues></_>
    <_>
      <internalNodes>
        0 -1 19658 1348808944 -1576929910 -426119300 -1882235137
        1295868351 -1355740245 1292635408 195167791</internalNodes>
      <leafValues>
        -3.8826754689216614e-01 1.4065934717655182e-01</leafValues></_>
    <_>
      <internalNodes>
        0 -1 25428 -33570993 -1178688577 -1615892935 -68174067
        -1541474386 -1443317080 1342662348 -255857924</internalNodes>
      <leafValues>
        -1.6423943638801575e-01 3.2219284772872925e-01</leafValues></_>
    <_>
      <internalNodes>
        0 -1 22081 1811787502 -460718677 -1571583752 -579218599
        1301277609 -582360344 5103863 -853611147</internalNodes>
      <leafValues>
        -2.2452688217163086e-01 2.2776161134243011e-01</leafValues></_>
    <_>
      <internalNodes>
        0 -1 17793 -1794111228 -857742209 -73446387 -1897455793
        -259216396 -100734983 -22175955 -1526766077</internalNodes>
      <leafValues>
        -2.5238430500030518e-01 2.0359471440315247e-01</leafValues></_>
    <_>
      <internalNodes>
        0 -1 24632 780339260 1387942236 861221144 2142328136 649788602
        959498984 1040193771 2133327097</internalNodes>
      <leafValues>
        -2.9285660386085510e-01 1.6982556879520416e-01</leafValues></_>
    <_>
      <internalNodes>
        0 -1 3453 -871433309 1298563667 990398456 1744458587 -1014329699
        1575641767 263523812 -405118121</internalNodes>
      <leafValues>
        -2.3070684075355530e-01 2.2281911969184875e-01</leafValues></_>
    <_>
      <internalNodes>
        0 -1 19349 -252917576 -191778698 1360922124 -732446770
        -1320052432 939080188 805807936 69483244</internalNodes>
      <leafValues>
        -4.5971301198005676e-01 1.0786671936511993e-01</leafValues></_>
    <_>
      <internalNodes>
        0 -1 22635 469738064 326970964 -1843825705 846862939 -320163304
        -362845176 315105458 997120747</internalNodes>
      <leafValues>
        -3.4971323609352112e-01 1.3638901710510254e-01</leafValues></_>
    <_>
      <internalNodes>
        0 -1 16663 -805195712 1903763786 -1901264786 -2014839825
        147635484 2090686965 -1883431969 634458242</internalNodes>
      <leafValues>
        -3.0424654483795166e-01 1.5893974900245667e-01</leafValues></_>
    <_>
      <internalNodes>
        0 -1 26008 -604507338 -1234502172 358141012 -167806192
        1216328348 -1465215440 -330512248 -453510212</internalNodes>
      <leafValues>
        -1.9966216385364532e-01 2.4621221423149109e-01</leafValues></_>
    <_>
      <internalNodes>
        0 -1 16431 669197091 -470900438 827847104 -251973630 789481915
        45494330 397906629 1153410739</internalNodes>
      <leafValues>
        -3.0686193704605103e-01 1.5472844243049622e-01</leafValues></_>
    <_>
      <internalNodes>
        0 -1 3200 -487657914 -342477505 -1114337881 -1598763492
        -59551628 -291220366 -375768159 -468235670</internalNodes>
      <leafValues>
        -2.9583761096000671e-01 1.6107013821601868e-01</leafValues></_>
    <_>
      <internalNodes>
        0 -1 22655 -339785615 -259687970 -1604931361 811516605
        -873276340 -552925155 -233776148 996463084</internalNodes>
      <leafValues>
        -2.7342817187309265e-01 1.7193661630153656e-01</leafValues></_>
    <_>
      <internalNodes>
        0 -1 24409 -646720938 1513055420 -1600133 -854649121 -893370216
        -1697562403 -1173038337 -94701538</internalNodes>
      <leafValues>
        -1.8138849735260010e-01 2.6809230446815491e-01</leafValues></_>
    <_>
      <internalNodes>
        0 -1 20457 -1290486404 851188029 -1892382706 -580448 322416389
        1983206241 428587192 255271799</internalNodes>
      <leafValues>
        -3.1630894541740417e-01 1.5361438691616058e-01</leafValues></_>
    <_>
      <internalNodes>
        0 -1 17333 1034423512 -18789140 1168363399 1071749855
        -1862411043 -1107484304 1424902991 -1709536904</internalNodes>
      <leafValues>
        -2.7866947650909424e-01 1.6188633441925049e-01</leafValues></_>
    <_>
      <internalNodes>
        0 -1 11604 2141120034 -502357297 -279832458 -1713979654
        1605566508 207390722 1487147197 1531594958</internalNodes>
      <leafValues>
        -3.2322165369987488e-01 1.4444443583488464e-01</leafValues></_>
    <_>
      <internalNodes>
        0 -1 21700 -1131019017 2036160351 -216498821 -617913225
        -149273207 -566272177 801044500 -15040757</internalNodes>
      <leafValues>
        -1.9087484478950500e-01 2.3895169794559479e-01</leafValues></_>
    <_>
      <internalNodes>
        0 -1 7655 -1697676772 791085772 -1332825934 852685546 -385596860
        1866891328 -219875420 1951005198</internalNodes>
      <leafValues>
        -3.2892656326293945e-01 1.3904324173927307e-01</leafValues></_>
    <_>
      <internalNodes>
        0 -1 15235 -408294621 -3235680 1162063989 1565319524 1334505907
        -1927045870 468169743 -566699920</internalNodes>
      <leafValues>
        -2.1597284078598022e-01 2.1607884764671326e-01</leafValues></_>
    <_>
      <internalNodes>
        0 -1 13421 1509414315 33279726 1673203147 -404234497 1974984447
        1099515534 1065110011 -173347701</internalNodes>
      <leafValues>
        -1.7437446117401123e-01 2.7243036031723022e-01</leafValues></_>
    <_>
      <internalNodes>
        0 -1 16439 1131736872 988531873 -555661194 -766160525 -880852824
        -2079685237 1567809518 -6291976</internalNodes>
      <leafValues>
        -1.8902197480201721e-01 2.4913562834262848e-01</leafValues></_>
    <_>
      <internalNodes>
        0 -1 8586 -213913423 -240499678 1140601062 1979642594 1246735359
        -838011921 1156152054 1575743918</internalNodes>
      <leafValues>
        -1.6423101723194122e-01 2.6934397220611572e-01</leafValues></_>
    <_>
      <internalNodes>
        0 -1 20961 -1285863209 309808081 -87073218 291391252 2127854567
        -1229000939 -129607345 -1638204151</internalNodes>
      <leafValues>
        -1.8601106107234955e-01 2.3958106338977814e-01</leafValues></_>
    <_>
      <internalNodes>
        0 -1 17238 930674996 -1743733789 -1000215809 -76417698 -11157259
        -41215838 -1715078316 -1348085062</internalNodes>
      <leafValues>
        -2.0116381347179413e-01 2.2190162539482117e-01</leafValues></_>
    <_>
      <internalNodes>
        0 -1 21298 153841033 1227650555 -357807019 -734635145 -388715628
        519746366 -592825856 -2000891214</internalNodes>
      <leafValues>
        -2.9382973909378052e-01 1.5113739669322968e-01</leafValues></_>
    <_>
      <internalNodes>
        0 -1 18546 -175424132 365402423 1094160586 -1801053318 693610954
        1905479151 -1311525942 -128738354</internalNodes>
      <leafValues>
        -1.9704611599445343e-01 2.3046360909938812e-01</leafValues></_>
    <_>
      <internalNodes>
        0 -1 15032 496685264 -538391376 -739511349 -37203504 696952698
        1802222570 640369045 1303336177</internalNodes>
      <leafValues>
        -2.9354572296142578e-01 1.5645837783813477e-01</leafValues></_>
    <_>
      <internalNodes>
        0 -1 18749 -2146717051 -1069363803 148937929 -841052439
        761046461 -119953432 897039215 -1217614582</internalNodes>
      <leafValues>
        -1.8802469968795776e-01 2.3680400848388672e-01</leafValues></_>
    <_>
      <internalNodes>
        0 -1 15241 -1293662787 -974213142 -1156056734 1983109920
        148276038 -1026894356 1743221627 1566047981</internalNodes>
      <leafValues>
        -2.4444435536861420e-01 1.7949339747428894e-01</leafValues></_>
    <_>
      <internalNodes>
        0 -1 18655 215898152 1907851983 1408977936 449774279 -14238797
        -212563768 -805814715 -552935505</internalNodes>
      <leafValues>
        -2.2789417207241058e-01 2.0032458007335663e-01</leafValues></_>
    <_>
      <internalNodes>
        0 -1 24667 179863459 -1173836912 1366692307 -678995019 346035044
        -1191541568 205540702 422593628</internalNodes>
      <leafValues>
        -3.3089542388916016e-01 1.3144737482070923e-01</leafValues></_>
    <_>
      <internalNodes>
        0 -1 14401 -923090360 827892251 -1073124708 1146260719
        1551453188 201261092 1494293949 -867497958</internalNodes>
      <leafValues>
        -2.7165716886520386e-01 1.5791775286197662e-01</leafValues></_>
    <_>
      <internalNodes>
        0 -1 22636 64960708 -1217517799 394093535 1481764313 242894856
        2017868305 38573026 -1234502129</internalNodes>
      <leafValues>
        -2.9058447480201721e-01 1.5072573721408844e-01</leafValues></_>
    <_>
      <internalNodes>
        0 -1 15319 -1611810522 -668487646 1375629564 1368473667
        162749498 1157712 536171679 -620080976</internalNodes>
      <leafValues>
        -2.1144093573093414e-01 2.0818315446376801e-01</leafValues></_>
    <_>
      <internalNodes>
        0 -1 712 242352463 2126467799 1489910859 -547556284 -345932972
        -47242592 -1710764177 -1688874624</internalNodes>
      <leafValues>
        -1.9893597066402435e-01 2.2312441468238831e-01</leafValues></_>
    <_>
      <internalNodes>
        0 -1 20377 -201330801 2010906593 466926947 -1879394634 -48510485
        1196476094 -1965317901 -655986489</internalNodes>
      <leafValues>
        -1.4695611596107483e-01 3.1237924098968506e-01</leafValues></_>
    <_>
      <internalNodes>
        0 -1 15591 -185267073 2139030863 1084125662 964320095 -55818044
        1896360199 -364752152 974796669</internalNodes>
      <leafValues>
        -2.4923492968082428e-01 1.8166074156761169e-01</leafValues></_>
    <_>
      <internalNodes>
        0 -1 22709 -1563164528 -15597091 1652730250 1905985114
        -928986461 151374318 715364815 39292004</internalNodes>
      <leafValues>
        -3.5875758528709412e-01 1.3099405169487000e-01</leafValues></_>
    <_>
      <internalNodes>
        0 -1 54 -1073290748 786465280 1842867884 -1529179734 1116408304
        1587574702 1276674273 584246340</internalNodes>
      <leafValues>
        -3.9416658878326416e-01 1.0797979682683945e-01</leafValues></_>
    <_>
      <internalNodes>
        0 -1 22567 -757119779 -210404225 1248523003 1920948213
        -823341944 -1088528553 -1739522822 -1086661137</internalNodes>
      <leafValues>
        -1.5907210111618042e-01 2.7730813622474670e-01</leafValues></_></weakClassifiers></stage18>
</opencv_storage>
